{"learner":{"attributes":{"scikit_learn":"{\"_estimator_type\": \"regressor\"}"},"feature_names":["positive","negative","neutral","close","volume","rolling_mean_long","rolling_mean_short","rolling_std","high_low_diff","close_open_diff","lag_1","lag_2","1_diff","2_diff","ticker_num"],"feature_types":["float","float","float","float","int","float","float","float","float","float","float","float","float","float","int"],"gradient_booster":{"model":{"gbtree_model_param":{"num_parallel_tree":"1","num_trees":"100"},"iteration_indptr":[0,1,2,3,4,5,6,7,8,9,10,11,12,13,14,15,16,17,18,19,20,21,22,23,24,25,26,27,28,29,30,31,32,33,34,35,36,37,38,39,40,41,42,43,44,45,46,47,48,49,50,51,52,53,54,55,56,57,58,59,60,61,62,63,64,65,66,67,68,69,70,71,72,73,74,75,76,77,78,79,80,81,82,83,84,85,86,87,88,89,90,91,92,93,94,95,96,97,98,99,100],"tree_info":[0,0,0,0,0,0,0,0,0,0,0,0,0,0,0,0,0,0,0,0,0,0,0,0,0,0,0,0,0,0,0,0,0,0,0,0,0,0,0,0,0,0,0,0,0,0,0,0,0,0,0,0,0,0,0,0,0,0,0,0,0,0,0,0,0,0,0,0,0,0,0,0,0,0,0,0,0,0,0,0,0,0,0,0,0,0,0,0,0,0,0,0,0,0,0,0,0,0,0,0],"trees":[{"base_weights":[4.8316433E-6,-7.625472E1,2.050405E2,-1.3229782E2,-5.765227E1,1.6913176E2,4.875151E1,-3.1351439E1,-2.166622E1,-6.497918E1,-1.5616138E1,2.421333E1,3.4767998E1,-7.3118675E1,-5.465443E1,-2.2575388E1,2.5627937E0,-1.7055998E1,-1.3930648E1,-1.1632191E1,-9.097087E0,-5.40035E0,-1.5176997E1,6.378068E0,-1.0867738E0,-3.215641E0,2.8471527E-1,2.3461282E0,9.108757E0,-4.570465E-1,9.3114376E-1,1.9403687E0,4.9571535E-1],"categories":[],"categories_nodes":[],"categories_segments":[],"categories_sizes":[],"default_left":[0,0,0,0,0,0,0,0,0,0,0,0,0,0,0,0,0,0,0,0,0,0,0,0,0,0,0,0,0,0,0,0,0],"id":0,"left_children":[1,3,5,7,9,11,-1,-1,-1,13,15,-1,-1,17,19,21,23,-1,-1,-1,-1,-1,25,27,-1,-1,-1,29,31,-1,-1,-1,-1],"loss_changes":[1.2977306E7,6.2310875E5,2.71587E5,7.095E4,1.3943112E5,6.10975E3,0E0,0E0,0E0,2.86105E4,8.787162E3,0E0,0E0,3.078875E3,2.9810625E3,1.2275938E3,6.448468E2,0E0,0E0,0E0,0E0,0E0,3.3706055E2,1.3276929E2,0E0,0E0,0E0,8.551524E1,7.411438E0,0E0,0E0,0E0,0E0],"parents":[2147483647,0,0,1,1,2,2,3,3,4,4,5,5,9,9,10,10,13,13,14,14,15,15,16,16,22,22,23,23,27,27,28,28],"right_children":[2,4,6,8,10,12,-1,-1,-1,14,16,-1,-1,18,20,22,24,-1,-1,-1,-1,-1,26,28,-1,-1,-1,30,32,-1,-1,-1,-1],"split_conditions":[3.4629E2,1.5007E2,4.5095E2,1.1228E2,2.088E2,3.8372714E2,4.875151E1,-3.1351439E1,-2.166622E1,1.7985E2,2.3496E2,2.421333E1,3.4767998E1,1.6277E2,1.9118E2,2.2127E2,2.44632E2,-1.7055998E1,-1.3930648E1,-1.1632191E1,-9.097087E0,-5.40035E0,1.366826E8,9.600067E-1,-1.0867738E0,-3.215641E0,2.8471527E-1,1.0149994E1,1.2352921E0,-4.570465E-1,9.3114376E-1,1.9403687E0,4.9571535E-1],"split_indices":[3,3,3,3,3,6,0,0,0,3,3,0,0,3,3,3,5,0,0,0,0,0,4,12,0,0,0,8,0,0,0,0,0],"split_type":[0,0,0,0,0,0,0,0,0,0,0,0,0,0,0,0,0,0,0,0,0,0,0,0,0,0,0,0,0,0,0,0,0],"sum_hessian":[8.28E2,6.04E2,2.24E2,1.49E2,4.55E2,1.19E2,1.05E2,7.1E1,7.8E1,3.87E2,6.8E1,1.3E1,1.06E2,2.13E2,1.74E2,4.9E1,1.9E1,4.2E1,1.71E2,1.22E2,5.2E1,2.9E1,2E1,1.3E1,6E0,1.9E1,1E0,6E0,7E0,2E0,4E0,6E0,1E0],"tree_param":{"num_deleted":"0","num_feature":"15","num_nodes":"33","size_leaf_vector":"1"}},{"base_weights":[-4.2313137E-3,-6.118765E1,1.645112E2,-1.1317772E2,-4.809077E1,1.3729991E2,3.9551376E1,-2.6319342E1,-1.9166935E1,-5.497435E1,-1.7683027E1,2.0339027E1,2.8303192E1,-6.558657E1,-4.835008E1,-2.6223286E1,-4.5101285E0,-1.4665522E1,-1.1877472E1,-1.02201E1,-8.438503E0,-6.019662E0,-3.5874162E0,-1.0723387E1,3.4303741E0,-1.1387678E1,2.562439E-1,5.3103266E0,-8.014107E-1,-2.453127E0,-4.6480918E-1,3.8892692E-1,1.5183033E0],"categories":[],"categories_nodes":[],"categories_segments":[],"categories_sizes":[],"default_left":[0,0,0,0,0,0,0,0,0,0,0,0,0,0,0,0,0,0,0,0,0,0,0,0,0,0,0,0,0,0,0,0,0],"id":1,"left_children":[1,3,5,7,9,11,-1,-1,-1,13,15,-1,-1,17,19,21,23,-1,-1,-1,-1,-1,-1,25,27,29,-1,31,-1,-1,-1,-1,-1],"loss_changes":[8.354462E6,4.0650625E5,1.763955E5,2.604075E4,1.0054525E5,4.67275E3,0E0,0E0,0E0,2.4596625E4,1.0119225E4,0E0,0E0,2.7955E3,2.027125E3,1.2261328E3,1.8622318E3,0E0,0E0,0E0,0E0,0E0,0E0,1.8205591E2,2.5897296E2,1.306438E2,0E0,9.272623E1,0E0,0E0,0E0,0E0,0E0],"parents":[2147483647,0,0,1,1,2,2,3,3,4,4,5,5,9,9,10,10,13,13,14,14,15,15,16,16,23,23,24,24,25,25,27,27],"right_children":[2,4,6,8,10,12,-1,-1,-1,14,16,-1,-1,18,20,22,24,-1,-1,-1,-1,-1,-1,26,28,30,-1,32,-1,-1,-1,-1,-1],"split_conditions":[3.4629E2,1.4052E2,4.5472E2,9.495E1,1.9749E2,3.9387E2,3.9551376E1,-2.6319342E1,-1.9166935E1,1.7275E2,2.2262E2,2.0339027E1,2.8303192E1,1.5912E2,1.8557E2,2.1599E2,2.3845E2,-1.4665522E1,-1.1877472E1,-1.02201E1,-8.438503E0,-6.019662E0,-3.5874162E0,1.366826E8,2.44632E2,2.4348572E2,2.562439E-1,9.600067E-1,-8.014107E-1,-2.453127E0,-4.6480918E-1,3.8892692E-1,1.5183033E0],"split_indices":[3,3,3,3,3,3,0,0,0,3,3,0,0,3,3,3,3,0,0,0,0,0,0,4,5,6,0,12,0,0,0,0,0],"split_type":[0,0,0,0,0,0,0,0,0,0,0,0,0,0,0,0,0,0,0,0,0,0,0,0,0,0,0,0,0,0,0,0,0],"sum_hessian":[8.28E2,6.04E2,2.24E2,1.2E2,4.84E2,1.26E2,9.8E1,5.5E1,6.5E1,3.94E2,9E1,1.6E1,1.1E2,1.48E2,2.46E2,5.4E1,3.6E1,6.1E1,8.7E1,1.65E2,8.1E1,3.5E1,1.9E1,2E1,1.6E1,1.9E1,1E0,1.3E1,3E0,1.7E1,2E0,6E0,7E0],"tree_param":{"num_deleted":"0","num_feature":"15","num_nodes":"33","size_leaf_vector":"1"}},{"base_weights":[-1.985901E-2,-4.9118465E1,1.3200093E2,-9.339183E1,-3.909127E1,1.0532943E2,1.5487361E2,-2.1192078E1,-1.5831111E1,-4.457208E1,-1.426909E1,9.239723E0,2.1318182E1,2.6955631E1,3.3403008E1,-1.1415495E1,-4.028481E1,-2.1653692E1,-4.312379E0,-8.800299E0,-7.1180277E0,-2.593663E1,-1.6727394E1,-9.177249E0,2.8093424E0,-1.4286088E0,-2.6402653E1,-3.5010364E0,-7.878811E0,-9.67653E0,2.3061982E-1,-1.0283146E0,5.5985336E0,-2.9548433E0,-5.582812E0,-1.9373444E0,-2.4550782E-1,-2.1045473E0,-6.052727E-1,-6.781153E-1,8.077962E-1,4.963646E-1,1.3159441E0],"categories":[],"categories_nodes":[],"categories_segments":[],"categories_sizes":[],"default_left":[0,0,0,0,0,0,0,0,0,0,0,0,0,0,0,0,0,0,0,0,0,0,0,0,0,0,0,0,0,0,0,0,0,0,0,0,0,0,0,0,0,0,0],"id":2,"left_children":[1,3,5,7,9,11,13,-1,-1,15,17,-1,-1,-1,-1,-1,19,21,23,-1,-1,25,27,29,31,-1,33,-1,35,37,-1,39,41,-1,-1,-1,-1,-1,-1,-1,-1,-1,-1],"loss_changes":[5.380092E6,2.6493138E5,1.209485E5,1.14738125E4,6.670669E4,3.057125E3,6.5245E3,0E0,0E0,1.9414312E4,6.5975195E3,0E0,0E0,0E0,0E0,0E0,3.7558125E3,6.632988E2,1.4116321E3,0E0,0E0,3.9117188E1,4.7902832E1,1.3494385E2,1.8772437E2,0E0,2.6972656E1,0E0,3.62088E1,9.758496E1,0E0,1.0945672E2,1.4251068E1,0E0,0E0,0E0,0E0,0E0,0E0,0E0,0E0,0E0,0E0],"parents":[2147483647,0,0,1,1,2,2,3,3,4,4,5,5,6,6,9,9,10,10,16,16,17,17,18,18,21,21,22,22,23,23,24,24,26,26,28,28,29,29,31,31,32,32],"right_children":[2,4,6,8,10,12,14,-1,-1,16,18,-1,-1,-1,-1,-1,20,22,24,-1,-1,26,28,30,32,-1,34,-1,36,38,-1,40,42,-1,-1,-1,-1,-1,-1,-1,-1,-1,-1],"split_conditions":[3.4629E2,1.3573E2,4.3711E2,9.463E1,1.9749E2,3.4059634E2,4.7679E2,-2.1192078E1,-1.5831111E1,1.68E2,2.2127E2,9.239723E0,2.1318182E1,2.6955631E1,3.3403008E1,-1.1415495E1,1.8106E2,2.0927E2,2.3845E2,-8.800299E0,-7.1180277E0,-5.970001E0,2.6127573E1,1.366826E8,1.0149994E1,-1.4286088E0,1E0,-3.5010364E0,1.2259466E-1,2.3496E2,2.3061982E-1,2.969986E0,-6.052481E-1,-2.9548433E0,-5.582812E0,-1.9373444E0,-2.4550782E-1,-2.1045473E0,-6.052727E-1,-6.781153E-1,8.077962E-1,4.963646E-1,1.3159441E0],"split_indices":[3,3,3,11,3,5,3,0,0,3,3,0,0,0,0,0,3,3,3,0,0,9,7,4,8,0,14,0,0,3,0,12,2,0,0,0,0,0,0,0,0,0,0],"split_type":[0,0,0,0,0,0,0,0,0,0,0,0,0,0,0,0,0,0,0,0,0,0,0,0,0,0,0,0,0,0,0,0,0,0,0,0,0,0,0,0,0,0,0],"sum_hessian":[8.28E2,6.04E2,2.24E2,1.1E2,4.94E2,1.06E2,1.18E2,5.5E1,5.5E1,4.04E2,9E1,3E0,1.03E2,4.9E1,6.9E1,1E2,3.04E2,5.1E1,3.9E1,1.65E2,1.39E2,2.5E1,2.6E1,2.3E1,1.6E1,1E0,2.4E1,2.3E1,3E0,2.2E1,1E0,7E0,9E0,4E0,2E1,2E0,1E0,1.9E1,3E0,5E0,2E0,3E0,6E0],"tree_param":{"num_deleted":"0","num_feature":"15","num_nodes":"43","size_leaf_vector":"1"}},{"base_weights":[-3.3759656E-3,-3.9427906E1,1.06004814E2,-6.816062E1,-2.9379612E1,8.3341E1,1.2346914E2,-8.099314E1,-1.08579445E1,-3.3149918E1,-8.080534E0,1.0020435E1,1.698258E1,2.2236485E1,2.7823378E1,-1.983379E1,-1.4630205E1,-7.5911264E0,-2.863355E1,-1.1748324E1,1.492968E0,-6.165159E0,-2.3992939E1,-1.3967452E1,-8.018697E0,3.6956177E0,-3.1256125E0,-2.4163406E1,-1.240123E0,-2.900952E0,-6.8487587E0,-3.9796386E0,-1.0716354E1,5.4671E0,1.1431209E0,-1.6272736E0,-7.685097E-1,-1.2983277E0,-4.866055E0,-1.6790314E0,-2.2095643E-1,-1.023061E0,7.5070195E-2,-3.699524E-1,-2.2708497E0,1.1797155E0,2.4467622E-1,-3.5754904E-1,5.346033E-1,-9.359894E-2,-3.7154034E-1],"categories":[],"categories_nodes":[],"categories_segments":[],"categories_sizes":[],"default_left":[0,0,0,0,0,0,0,0,0,0,0,0,0,0,0,0,0,0,0,0,0,0,0,0,0,0,0,0,0,0,0,0,0,0,0,0,0,0,0,0,0,0,0,0,0,0,0,0,0,0,0],"id":3,"left_children":[1,3,5,7,9,11,13,15,-1,17,19,-1,-1,-1,-1,-1,-1,-1,21,23,25,-1,27,29,31,33,35,37,-1,-1,39,41,43,45,47,49,-1,-1,-1,-1,-1,-1,-1,-1,-1,-1,-1,-1,-1,-1,-1],"loss_changes":[3.4688382E6,1.7266988E5,7.8767E4,2.337075E4,3.5868938E4,1.0228125E3,8.565E3,4.0060938E3,0E0,7.20425E3,2.440378E3,0E0,0E0,0E0,0E0,0E0,0E0,0E0,1.3052656E3,3.018252E2,2.1501337E2,0E0,5.9445312E1,1.5408203E1,1.861687E2,5.705429E1,1.2666092E0,4.258203E1,0E0,0E0,2.6255081E1,5.137819E1,4.6868652E1,7.4323425E0,3.61661E1,1.991272E-1,0E0,0E0,0E0,0E0,0E0,0E0,0E0,0E0,0E0,0E0,0E0,0E0,0E0,0E0,0E0],"parents":[2147483647,0,0,1,1,2,2,3,3,4,4,5,5,6,6,7,7,9,9,10,10,18,18,19,19,20,20,22,22,23,23,24,24,25,25,26,26,27,27,30,30,31,31,32,32,33,33,34,34,35,35],"right_children":[2,4,6,8,10,12,14,16,-1,18,20,-1,-1,-1,-1,-1,-1,-1,22,24,26,-1,28,30,32,34,36,38,-1,-1,40,42,44,46,48,50,-1,-1,-1,-1,-1,-1,-1,-1,-1,-1,-1,-1,-1,-1,-1],"split_conditions":[3.4629E2,1.5171E2,4.3016E2,1.1793E2,2.088E2,3.7528E2,4.9183E2,7.8701E1,-1.08579445E1,1.7781E2,2.3496E2,1.0020435E1,1.698258E1,2.2236485E1,2.7823378E1,-1.983379E1,-1.4630205E1,-7.5911264E0,1.8871E2,2.2127E2,2.44632E2,-6.165159E0,1.2440002E1,2.6127573E1,2.1518567E2,2.5264E2,2.4484799E2,-2.832492E0,-1.240123E0,-2.900952E0,1.2259466E-1,6.322998E0,-8.689063E-1,1.2352921E0,1.0149994E1,-5.076818E-1,-7.685097E-1,-1.2983277E0,-4.866055E0,-1.6790314E0,-2.2095643E-1,-1.023061E0,7.5070195E-2,-3.699524E-1,-2.2708497E0,1.1797155E0,2.4467622E-1,-3.5754904E-1,5.346033E-1,-9.359894E-2,-3.7154034E-1],"split_indices":[3,3,3,3,3,3,3,3,0,3,3,0,0,0,0,0,0,0,3,3,5,0,12,7,5,11,5,2,0,0,0,13,0,0,8,1,0,0,0,0,0,0,0,0,0,0,0,0,0,0,0],"split_type":[0,0,0,0,0,0,0,0,0,0,0,0,0,0,0,0,0,0,0,0,0,0,0,0,0,0,0,0,0,0,0,0,0,0,0,0,0,0,0,0,0,0,0,0,0,0,0,0,0,0,0],"sum_hessian":[8.28E2,6.04E2,2.24E2,1.55E2,4.49E2,1E2,1.24E2,7.8E1,7.7E1,3.81E2,6.8E1,6E0,9.4E1,7.4E1,5E1,2E1,5.8E1,1.81E2,2E2,4.9E1,1.9E1,1.32E2,6.8E1,2.9E1,2E1,1.3E1,6E0,6.7E1,1E0,2.6E1,3E0,9E0,1.1E1,7E0,6E0,3E0,3E0,1E0,6.6E1,2E0,1E0,7E0,2E0,1E0,1E1,6E0,1E0,2E0,4E0,1E0,2E0],"tree_param":{"num_deleted":"0","num_feature":"15","num_nodes":"51","size_leaf_vector":"1"}},{"base_weights":[3.8654986E-4,-3.1665472E1,8.514636E1,-2.5231058E1,-6.137676E1,7.2705734E1,2.1357237E1,-2.922102E1,-1.1020913E1,-1.5811487E1,-1.1118892E1,1.1886936E1,1.6014715E1,-7.696377E0,-2.6622086E1,-1.6351799E1,-4.1901956E0,-5.9757037E0,-4.951223E0,-1.7889624E1,-1.2227885E1,-7.130119E0,1.936133E0,-7.991425E-1,-3.6250591E0,-6.883087E-1,-2.5018382E0,-3.580748E0,-8.4598255E0,-8.230381E-1,3.9498565E0,-8.2777464E-1,2.0005035E-1,-1.8512076E0,-4.3295136E-1,-4.9087372E-1,5.427938E-1,1.0959206E0,5.022901E-1],"categories":[],"categories_nodes":[],"categories_segments":[],"categories_sizes":[],"default_left":[0,0,0,0,0,0,0,0,0,0,0,0,0,0,0,0,0,0,0,0,0,0,0,0,0,0,0,0,0,0,0,0,0,0,0,0,0,0,0],"id":4,"left_children":[1,3,5,7,9,11,-1,13,15,-1,-1,-1,-1,-1,17,19,21,-1,-1,23,25,27,29,-1,-1,-1,-1,31,33,35,37,-1,-1,-1,-1,-1,-1,-1,-1],"loss_changes":[2.237863E6,1.1411206E5,5.2808875E4,2.7970219E4,6.544E3,9.516625E3,0E0,8.338156E3,3.973412E3,0E0,0E0,0E0,0E0,0E0,1.1257812E3,1.744414E2,9.143518E2,0E0,0E0,6.837598E1,6.38208E0,1.301748E2,9.770641E1,0E0,0E0,0E0,0E0,3.2264404E1,1.0025598E2,5.2821304E1,8.242203E0,0E0,0E0,0E0,0E0,0E0,0E0,0E0,0E0],"parents":[2147483647,0,0,1,1,2,2,3,3,4,4,5,5,7,7,8,8,14,14,15,15,16,16,19,19,20,20,21,21,22,22,27,27,28,28,29,29,30,30],"right_children":[2,4,6,8,10,12,-1,14,16,-1,-1,-1,-1,-1,18,20,22,-1,-1,24,26,28,30,-1,-1,-1,-1,32,34,36,38,-1,-1,-1,-1,-1,-1,-1,-1],"split_conditions":[3.4629E2,4E0,4.7185E2,1.9312E2,7.9518E1,4.1401E2,2.1357237E1,1.6148E2,2.1796E2,-1.5811487E1,-1.1118892E1,1.1886936E1,1.6014715E1,-7.696377E0,1.7473E2,2.088E2,2.3845E2,-5.9757037E0,-4.951223E0,-5.970001E0,3.80516E7,2.1518567E2,1.0149994E1,-7.991425E-1,-3.6250591E0,-6.883087E-1,-2.5018382E0,6.48854E7,2.3496E2,2.969986E0,2.4823E2,-8.2777464E-1,2.0005035E-1,-1.8512076E0,-4.3295136E-1,-4.9087372E-1,5.427938E-1,1.0959206E0,5.022901E-1],"split_indices":[3,14,3,3,3,3,0,3,3,0,0,0,0,0,3,3,3,0,0,9,4,5,8,0,0,0,0,4,3,12,11,0,0,0,0,0,0,0,0],"split_type":[0,0,0,0,0,0,0,0,0,0,0,0,0,0,0,0,0,0,0,0,0,0,0,0,0,0,0,0,0,0,0,0,0,0,0,0,0,0,0],"sum_hessian":[8.28E2,6.04E2,2.24E2,4.98E2,1.06E2,1.45E2,7.9E1,3.88E2,1.1E2,2.3E1,8.3E1,5.5E1,9E1,8.2E1,3.06E2,6.1E1,4.9E1,1.06E2,2E2,4.2E1,1.9E1,3.3E1,1.6E1,1E0,4.1E1,1E0,1.8E1,1E1,2.3E1,7E0,9E0,9E0,1E0,2E1,3E0,5E0,2E0,3E0,6E0],"tree_param":{"num_deleted":"0","num_feature":"15","num_nodes":"39","size_leaf_vector":"1"}},{"base_weights":[-5.9273676E-3,-2.5422344E1,6.833602E1,-4.6259647E1,-1.9452806E1,5.3650417E1,8.029476E1,-5.562638E1,-7.629894E0,-2.236126E1,-7.675464E0,5.4189884E1,3.48503E0,1.4891563E1,1.999276E1,-1.3977404E1,-1.0038998E1,-2.6645132E1,-1.987168E1,-1.0661202E1,-8.509903E-1,9.59565E0,1.1805493E1,-6.102205E0,-4.955251E0,-4.1628003E0,-1.6431578E1,-1.2668573E1,-7.2924614E0,-3.3992894E0,2.7428846E0,-1.6590427E1,-7.536041E-1,-9.365265E0,-1.3912193E1,-1.8986136E0,-5.186228E0,-1.8761717E0,-1.3968323E0,6.795349E-1,3.9475365E0,-8.867752E-1,-3.3461678E0,-3.248108E-1,-1.9671631E0,-8.059891E-1,-2.8274562E0,-1.1997721E0,-2.4972306E-1,-5.490731E-1,1.9663087E-1,-2.7481994E-1,2.7301636E-1,9.3488926E-1,2.3557435E-1],"categories":[],"categories_nodes":[],"categories_segments":[],"categories_sizes":[],"default_left":[0,0,0,0,0,0,0,0,0,0,0,0,0,0,0,0,0,0,0,0,0,0,0,0,0,0,0,0,0,0,0,0,0,0,0,0,0,0,0,0,0,0,0,0,0,0,0,0,0,0,0,0,0,0,0],"id":5,"left_children":[1,3,5,7,9,11,13,15,-1,17,19,21,-1,-1,-1,-1,-1,23,25,27,29,-1,-1,-1,-1,-1,31,33,35,37,39,41,-1,43,45,-1,47,49,-1,51,53,-1,-1,-1,-1,-1,-1,-1,-1,-1,-1,-1,-1,-1,-1],"loss_changes":[1.4417165E6,7.43555E4,3.5207E4,8.0573438E3,1.5996203E4,1.088125E3,6.563375E3,1.1393281E3,0E0,3.5019219E3,1.9266562E3,2.33E2,0E0,0E0,0E0,0E0,0E0,2.2663281E2,4.4571875E2,3.5392773E2,2.8407193E2,0E0,0E0,0E0,0E0,0E0,5.214746E1,3.403076E1,7.59115E1,8.517981E1,2.9630547E1,2.1405273E1,0E0,3.502307E1,3.0859375E0,0E0,4.370706E1,3.749344E1,0E0,1.0322936E1,1.0600479E1,0E0,0E0,0E0,0E0,0E0,0E0,0E0,0E0,0E0,0E0,0E0,0E0,0E0,0E0],"parents":[2147483647,0,0,1,1,2,2,3,3,4,4,5,5,6,6,7,7,9,9,10,10,11,11,17,17,18,18,19,19,20,20,26,26,27,27,28,28,29,29,30,30,31,31,33,33,34,34,36,36,37,37,39,39,40,40],"right_children":[2,4,6,8,10,12,14,16,-1,18,20,22,-1,-1,-1,-1,-1,24,26,28,30,-1,-1,-1,-1,-1,32,34,36,38,40,42,-1,44,46,-1,48,50,-1,52,54,-1,-1,-1,-1,-1,-1,-1,-1,-1,-1,-1,-1,-1,-1],"split_conditions":[3.4629E2,1.4409E2,4.3052E2,1.0045E2,1.9587E2,1.9761916E0,5.0663E2,6.7472E1,-7.629894E0,1.7275E2,2.2782E2,4.1184E2,3.48503E0,1.4891563E1,1.999276E1,-1.3977404E1,-1.0038998E1,1.5545E2,1.8729E2,2.1599E2,9.75E0,9.59565E0,1.1805493E1,-6.102205E0,-4.955251E0,-4.1628003E0,2.0264E2,1E0,-2.100006E0,3.112999E0,-8.481844E-1,-1.5653887E0,-7.536041E-1,1.9357E2,-2.832492E0,-1.8986136E0,6.17776E7,1.5E0,-1.3968323E0,-1.6765553E0,1.2352921E0,-8.867752E-1,-3.3461678E0,-3.248108E-1,-1.9671631E0,-8.059891E-1,-2.8274562E0,-1.1997721E0,-2.4972306E-1,-5.490731E-1,1.9663087E-1,-2.7481994E-1,2.7301636E-1,9.3488926E-1,2.3557435E-1],"split_indices":[3,3,10,3,10,1,3,3,0,3,3,3,0,0,0,0,0,3,3,3,8,0,0,0,0,0,3,14,13,9,0,1,0,3,2,0,4,12,0,1,0,0,0,0,0,0,0,0,0,0,0,0,0,0,0],"split_type":[0,0,0,0,0,0,0,0,0,0,0,0,0,0,0,0,0,0,0,0,0,0,0,0,0,0,0,0,0,0,0,0,0,0,0,0,0,0,0,0,0,0,0,0,0,0,0,0,0,0,0,0,0,0,0],"sum_hessian":[8.28E2,6.04E2,2.24E2,1.33E2,4.71E2,1.03E2,1.21E2,5.9E1,7.4E1,3.77E2,9.4E1,1.01E2,2E0,9.7E1,2.4E1,1.3E1,4.6E1,1.35E2,2.42E2,6.5E1,2.9E1,4.9E1,5.2E1,3.9E1,9.6E1,1.86E2,5.6E1,3.9E1,2.6E1,1.7E1,1.2E1,5.5E1,1E0,1.3E1,2.6E1,1.1E1,1.5E1,1.3E1,4E0,5E0,7E0,1E0,5.4E1,1E0,1.2E1,1E0,2.5E1,1.2E1,3E0,1E1,3E0,1E0,4E0,5E0,2E0],"tree_param":{"num_deleted":"0","num_feature":"15","num_nodes":"55","size_leaf_vector":"1"}},{"base_weights":[-7.0796134E-3,-2.0439873E1,5.4934464E1,-4.0627995E1,-1.6313625E1,4.6577797E1,6.9498695E1,-1.0972033E1,-7.4272294E0,-1.8699335E1,-6.609265E0,3.9489532E1,1.0450207E1,1.2736782E1,1.6386772E1,-4.847054E0,-1.6798584E1,-9.396778E0,-1.533653E0,7.9984245E0,3.0203614E0,-1.8111822E1,-2.877121E0,-1.0945642E1,-6.6524963E0,-3.6887858E0,1.8731272E0,-6.16157E0,-1.8204697E1,-1.176599E1,-6.1935024E0,-2.8456242E0,-7.4233885E0,-4.6409802E0,-2.1740468E-1,2.0777893E-1,3.3043346E0,3.6376497E-1,-2.2122362E0,-1.4329854E0,-3.6567218E0,-2.4465716E0,-1.0645981E0,-2.923294E-1,-1.3321351E0,1.1233521E-2,-6.8744326E-1,-1.5170968E0,-4.1814882E-1,-4.541954E-1,-1.1885422E0,3.451523E-1,-1.9023804E-1,-2.4680074E-1,1.7880808E-1,9.274109E-1,3.154584E-1],"categories":[],"categories_nodes":[],"categories_segments":[],"categories_sizes":[],"default_left":[0,0,0,0,0,0,0,0,0,0,0,0,0,0,0,0,0,0,0,0,0,0,0,0,0,0,0,0,0,0,0,0,0,0,0,0,0,0,0,0,0,0,0,0,0,0,0,0,0,0,0,0,0,0,0,0,0],"id":6,"left_children":[1,3,5,7,9,11,13,-1,-1,15,17,19,-1,-1,-1,-1,21,23,25,-1,-1,27,-1,29,31,33,35,37,39,41,43,45,47,49,51,53,55,-1,-1,-1,-1,-1,-1,-1,-1,-1,-1,-1,-1,-1,-1,-1,-1,-1,-1,-1,-1],"loss_changes":[9.317658E5,4.9734438E4,2.4147312E4,3.03175E3,1.1544906E4,3.8078125E3,5.6675E2,0E0,0E0,3.8439375E3,1.4145703E3,2.4178906E2,0E0,0E0,0E0,0E0,7.0277344E2,2.0346826E2,2.7856592E2,0E0,0E0,1.0203516E2,0E0,8.3063965E1,5.5177612E1,7.501593E1,3.506531E1,1.374208E2,3.5398438E1,3.4149902E1,7.949188E0,1.0493122E1,2.2930908E0,4.2036194E1,1.0196731E1,9.018768E0,1.1099319E1,0E0,0E0,0E0,0E0,0E0,0E0,0E0,0E0,0E0,0E0,0E0,0E0,0E0,0E0,0E0,0E0,0E0,0E0,0E0,0E0],"parents":[2147483647,0,0,1,1,2,2,3,3,4,4,5,5,6,6,9,9,10,10,11,11,16,16,17,17,18,18,21,21,23,23,24,24,25,25,26,26,27,27,28,28,29,29,30,30,31,31,32,32,33,33,34,34,35,35,36,36],"right_children":[2,4,6,8,10,12,14,-1,-1,16,18,20,-1,-1,-1,-1,22,24,26,-1,-1,28,-1,30,32,34,36,38,40,42,44,46,48,50,52,54,56,-1,-1,-1,-1,-1,-1,-1,-1,-1,-1,-1,-1,-1,-1,-1,-1,-1,-1,-1,-1],"split_conditions":[3.4629E2,1.2961E2,4.7185E2,6.2662334E1,1.9448E2,4.1732E2,5.095E2,-1.0972033E1,-7.4272294E0,1.668E2,2.2262E2,1.9761916E0,1.0450207E1,1.2736782E1,1.6386772E1,-4.847054E0,1.825E2,2.1188E2,9.669998E0,7.9984245E0,3.0203614E0,1.5554857E2,-2.877121E0,5.5154943E-1,-1.1281406E0,2.4648428E2,-7.1208525E-1,2.1506183E-1,-7.26001E0,2.6799927E0,5.596637E-1,-5.772188E-1,4.2699966E0,2.1518567E2,-9.966816E-1,-1.5551202E0,2.1506183E-1,3.6376497E-1,-2.2122362E0,-1.4329854E0,-3.6567218E0,-2.4465716E0,-1.0645981E0,-2.923294E-1,-1.3321351E0,1.1233521E-2,-6.8744326E-1,-1.5170968E0,-4.1814882E-1,-4.541954E-1,-1.1885422E0,3.451523E-1,-1.9023804E-1,-2.4680074E-1,1.7880808E-1,9.274109E-1,3.154584E-1],"split_indices":[3,3,3,5,11,3,3,0,0,3,3,1,0,0,0,0,3,3,8,0,0,6,0,1,2,6,0,0,9,13,1,1,12,5,0,1,0,0,0,0,0,0,0,0,0,0,0,0,0,0,0,0,0,0,0,0,0],"split_type":[0,0,0,0,0,0,0,0,0,0,0,0,0,0,0,0,0,0,0,0,0,0,0,0,0,0,0,0,0,0,0,0,0,0,0,0,0,0,0,0,0,0,0,0,0,0,0,0,0,0,0,0,0,0,0,0,0],"sum_hessian":[8.28E2,6.04E2,2.24E2,1.01E2,5.03E2,1.45E2,7.9E1,1.7E1,8.4E1,4.03E2,1E2,6.8E1,7.7E1,5.8E1,2.1E1,1E2,3.03E2,6.4E1,3.6E1,6.6E1,2E0,1.92E2,1.11E2,3.9E1,2.5E1,2.2E1,1.4E1,2E0,1.9E2,3.2E1,7E0,5E0,2E1,1.7E1,5E0,7E0,7E0,1E0,1E0,2E0,1.88E2,2.9E1,3E0,1E0,6E0,1E0,4E0,1.9E1,1E0,7E0,1E1,1E0,4E0,2E0,5E0,3E0,4E0],"tree_param":{"num_deleted":"0","num_feature":"15","num_nodes":"57","size_leaf_vector":"1"}},{"base_weights":[5.763529E-3,-1.6419867E1,4.4172432E1,-3.3125256E1,-1.316485E1,3.789949E1,5.752109E1,-8.404681E0,-5.8656754E0,-1.5551322E1,-6.780756E0,3.139808E1,8.416186E0,1.1987567E1,3.9109657E1,-2.0334835E1,-1.4070095E1,-9.213612E0,-2.2173433E0,4.350297E0,6.5513053E0,3.3545513E0,8.441955E0,-4.1089854E0,-7.7440085E0,-1.509368E1,-2.494265E0,-1.008533E1,-6.892056E0,-4.1475396E0,8.8532794E-1,-1.9866012E0,-3.3660126E-1,-1.0625875E0,-3.0358005E0,-2.4393463E0,-1.029263E1,-4.595546E0,-9.188372E0,-1.9323162E0,-5.110393E0,-5.6324905E-1,2.3902297E0,1.3642884E-2,-7.454468E-1,-2.1911266E0,-1.4969691E0,-6.156769E-1,-1.0867035E0,-2.1460528E0,-9.150586E-1,-6.518335E-1,-1.4170401E-1,-1.144353E0,-4.0192994E-1,-2.5466478E-1,3.5094503E-1,9.874573E-1,3.1172726E-1],"categories":[],"categories_nodes":[],"categories_segments":[],"categories_sizes":[],"default_left":[0,0,0,0,0,0,0,0,0,0,0,0,0,0,0,0,0,0,0,0,0,0,0,0,0,0,0,0,0,0,0,0,0,0,0,0,0,0,0,0,0,0,0,0,0,0,0,0,0,0,0,0,0,0,0,0,0,0,0],"id":7,"left_children":[1,3,5,7,9,11,13,-1,-1,15,17,19,-1,-1,21,23,25,27,29,-1,-1,-1,-1,-1,31,33,-1,35,37,39,41,-1,-1,-1,-1,43,45,47,49,51,53,55,57,-1,-1,-1,-1,-1,-1,-1,-1,-1,-1,-1,-1,-1,-1,-1,-1],"loss_changes":[6.0213606E5,3.2461578E4,1.6660438E4,2.0784688E3,7.634164E3,2.9196562E3,7.705469E2,0E0,0E0,2.3284297E3,1.5338677E3,1.3928125E2,0E0,0E0,5.374414E1,6.574609E1,2.7815625E2,1.14651855E2,3.0311014E2,0E0,0E0,0E0,0E0,0E0,2.308525E1,6.038672E1,0E0,7.6333496E1,1.0543286E2,5.6246094E1,4.494562E1,0E0,0E0,0E0,0E0,9.942619E0,3.3416504E1,3.6149597E0,4.3373047E1,1.5552567E1,2.8311218E1,2.033962E1,1.3485729E1,0E0,0E0,0E0,0E0,0E0,0E0,0E0,0E0,0E0,0E0,0E0,0E0,0E0,0E0,0E0,0E0],"parents":[2147483647,0,0,1,1,2,2,3,3,4,4,5,5,6,6,9,9,10,10,11,11,14,14,15,15,16,16,17,17,18,18,24,24,25,25,27,27,28,28,29,29,30,30,35,35,36,36,37,37,38,38,39,39,40,40,41,41,42,42],"right_children":[2,4,6,8,10,12,14,-1,-1,16,18,20,-1,-1,22,24,26,28,30,-1,-1,-1,-1,-1,32,34,-1,36,38,40,42,-1,-1,-1,-1,44,46,48,50,52,54,56,58,-1,-1,-1,-1,-1,-1,-1,-1,-1,-1,-1,-1,-1,-1,-1,-1],"split_conditions":[3.4629E2,1.282E2,4.7542E2,8.2632E1,1.8813E2,4.1607E2,5.02705E2,-8.404681E0,-5.8656754E0,1.5912E2,2.1796E2,3.7447858E2,8.416186E0,1.1987567E1,-2.209839E0,1.5894E2,1.7887E2,1.9932571E2,2.3496E2,4.350297E0,6.5513053E0,3.3545513E0,8.441955E0,-4.1089854E0,-9.1297525E-1,1.5549E2,-2.494265E0,1.8406E2,8.3034E7,2.1518567E2,1.0149994E1,-1.9866012E0,-3.3660126E-1,-1.0625875E0,-3.0358005E0,-4.9654874E-1,6.0399933E0,6.799927E-1,1.0153272E0,1.2116885E1,1.4837646E0,2.969986E0,-1.5912218E0,1.3642884E-2,-7.454468E-1,-2.1911266E0,-1.4969691E0,-6.156769E-1,-1.0867035E0,-2.1460528E0,-9.150586E-1,-6.518335E-1,-1.4170401E-1,-1.144353E0,-4.0192994E-1,-2.5466478E-1,3.5094503E-1,9.874573E-1,3.1172726E-1],"split_indices":[3,3,11,3,3,3,5,0,0,3,3,6,0,0,2,10,3,6,3,0,0,0,0,0,0,10,0,10,4,5,8,0,0,0,0,0,8,12,2,7,0,12,1,0,0,0,0,0,0,0,0,0,0,0,0,0,0,0,0],"split_type":[0,0,0,0,0,0,0,0,0,0,0,0,0,0,0,0,0,0,0,0,0,0,0,0,0,0,0,0,0,0,0,0,0,0,0,0,0,0,0,0,0,0,0,0,0,0,0,0,0,0,0,0,0,0,0,0,0,0,0],"sum_hessian":[8.28E2,6.04E2,2.24E2,9.7E1,5.07E2,1.55E2,6.9E1,2.6E1,7.1E1,3.68E2,1.39E2,6.4E1,9.1E1,5.9E1,1E1,8.4E1,2.84E2,9E1,4.9E1,1E1,5.4E1,2E0,8E0,8.2E1,2E0,1.68E2,1.16E2,6.3E1,2.7E1,3E1,1.9E1,1E0,1E0,2E0,1.66E2,2E0,6.1E1,1.5E1,1.2E1,1E1,2E1,1E1,9E0,1E0,1E0,4.7E1,1.4E1,7E0,8E0,8E0,4E0,4E0,6E0,1.6E1,4E0,8E0,2E0,1E0,8E0],"tree_param":{"num_deleted":"0","num_feature":"15","num_nodes":"59","size_leaf_vector":"1"}},{"base_weights":[1.14576155E-2,-1.3197751E1,3.55295E1,-2.664582E1,-1.0577458E1,3.096244E1,9.689422E0,-7.783069E0,-2.4311478E1,-1.2578454E1,-5.7178907E0,2.6079947E1,3.516019E1,-2.5656343E1,-3.7315693E0,-3.326667E0,-1.1449056E1,-7.6044116E0,-1.792761E0,3.8328412E0,5.4932246E0,7.0932055E0,2.934552E0,-5.1648607E0,-1.4738938E0,-1.0124451E1,-1.2398135E1,-8.105252E0,-5.170746E0,-3.3935103E0,7.780388E-1,-1.04725275E1,-7.1204033E0,-2.5055988E0,-8.3384174E-1,-4.6845195E-1,-8.220049E0,-6.8391025E-1,-6.292673E0,-4.5456305E0,-2.029296E0,-2.7273324E-1,2.3882885E0,-3.4038392E-1,-2.1075957E0,-3.0294037E-1,-1.4786273E0,-6.4354706E-1,-1.6746311E0,-1.3744884E0,-4.9116212E-1,-1.10167444E-1,-1.015394E0,-1.2893066E-2,-5.3577346E-1,-2.2823258E-1,1.861257E-1,2.1421102E-1,8.4533185E-1],"categories":[],"categories_nodes":[],"categories_segments":[],"categories_sizes":[],"default_left":[0,0,0,0,0,0,0,0,0,0,0,0,0,0,0,0,0,0,0,0,0,0,0,0,0,0,0,0,0,0,0,0,0,0,0,0,0,0,0,0,0,0,0,0,0,0,0,0,0,0,0,0,0,0,0,0,0,0,0],"id":8,"left_children":[1,3,5,7,9,11,-1,-1,13,15,17,19,21,23,-1,-1,25,27,29,-1,-1,-1,-1,-1,-1,31,33,35,37,39,41,43,45,-1,-1,-1,47,-1,49,51,53,55,57,-1,-1,-1,-1,-1,-1,-1,-1,-1,-1,-1,-1,-1,-1,-1,-1],"loss_changes":[3.894069E5,2.103707E4,1.1773969E4,1.8607578E3,4.8678594E3,2.54675E3,0E0,0E0,1.6759375E2,1.4536289E3,1.0970933E3,2.5971875E2,3.1007812E1,1.2402344E1,0E0,0E0,2.3150781E2,8.119629E1,2.0840057E2,0E0,0E0,0E0,0E0,0E0,0E0,5.5088867E1,1.198125E2,3.4995605E1,1.7776184E1,3.949948E1,3.449147E1,4.4635742E1,1.3263428E1,0E0,0E0,0E0,3.4328125E1,0E0,7.5920105E0,3.1164917E1,2.0248077E1,1.4647452E1,1.4845524E1,0E0,0E0,0E0,0E0,0E0,0E0,0E0,0E0,0E0,0E0,0E0,0E0,0E0,0E0,0E0,0E0],"parents":[2147483647,0,0,1,1,2,2,3,3,4,4,5,5,8,8,9,9,10,10,11,11,12,12,13,13,16,16,17,17,18,18,25,25,26,26,27,27,28,28,29,29,30,30,31,31,32,32,36,36,38,38,39,39,40,40,41,41,42,42],"right_children":[2,4,6,8,10,12,-1,-1,14,16,18,20,22,24,-1,-1,26,28,30,-1,-1,-1,-1,-1,-1,32,34,36,38,40,42,44,46,-1,-1,-1,48,-1,50,52,54,56,58,-1,-1,-1,-1,-1,-1,-1,-1,-1,-1,-1,-1,-1,-1,-1,-1],"split_conditions":[3.4629E2,1.282E2,4.8301855E2,6.7472E1,1.8729E2,4.2286E2,9.689422E0,-7.783069E0,9.957755E0,1.5545E2,2.1796E2,3.9349142E2,5.0195532E2,1.264E2,-3.7315693E0,-3.326667E0,4.8651137E0,2.0907E2,2.3496E2,3.8328412E0,5.4932246E0,7.0932055E0,2.934552E0,-5.1648607E0,-1.4738938E0,2.899994E0,2.0216818E1,-5.970001E0,8.3034E7,7.919998E-1,2.5152E2,-7.26001E0,-8.704594E-1,-2.5055988E0,-8.3384174E-1,-4.6845195E-1,-1.5434765E0,-6.8391025E-1,1.196608E8,2.12605E2,-3.6999512E-1,1.0149994E1,1.3149994E1,-3.4038392E-1,-2.1075957E0,-3.0294037E-1,-1.4786273E0,-6.4354706E-1,-1.6746311E0,-1.3744884E0,-4.9116212E-1,-1.10167444E-1,-1.015394E0,-1.2893066E-2,-5.3577346E-1,-2.2823258E-1,1.861257E-1,2.1421102E-1,8.4533185E-1],"split_indices":[3,3,6,3,3,3,0,0,7,3,3,6,5,3,0,0,7,11,3,0,0,0,0,0,0,9,7,9,4,13,3,9,1,0,0,0,1,0,4,5,9,8,8,0,0,0,0,0,0,0,0,0,0,0,0,0,0,0,0],"split_type":[0,0,0,0,0,0,0,0,0,0,0,0,0,0,0,0,0,0,0,0,0,0,0,0,0,0,0,0,0,0,0,0,0,0,0,0,0,0,0,0,0,0,0,0,0,0,0,0,0,0,0,0,0,0,0,0,0,0,0],"sum_hessian":[8.28E2,6.04E2,2.24E2,9.7E1,5.07E2,1.68E2,5.6E1,1.3E1,8.4E1,3.58E2,1.49E2,8.1E1,8.7E1,6.5E1,1.9E1,7.5E1,2.83E2,1E2,4.9E1,1.6E1,6.5E1,8.5E1,2E0,6.4E1,1E0,1.23E2,1.6E2,8.1E1,1.9E1,3E1,1.9E1,1.08E2,1.5E1,1.57E2,3E0,2E0,7.9E1,9E0,1E1,1.5E1,1.5E1,1.2E1,7E0,1E0,1.07E2,1E0,1.4E1,3E0,7.6E1,8E0,2E0,2E0,1.3E1,4E0,1.1E1,7E0,5E0,5E0,2E0],"tree_param":{"num_deleted":"0","num_feature":"15","num_nodes":"59","size_leaf_vector":"1"}},{"base_weights":[1.9292751E-3,-1.0616122E1,2.8552683E1,-2.1501894E1,-8.4952135E0,2.4326239E1,3.7563717E1,-6.3932023E0,-1.952543E1,-9.850404E0,-3.882139E0,2.1081842E1,2.7818565E1,6.6233025E0,4.5761414E1,-2.0785915E1,-3.133766E0,-1.2140594E1,-8.349363E0,-5.0583572E0,-3.0249482E-1,2.128129E0,2.1601408E1,2.5752456E0,5.656324E0,3.8449178E0,9.490774E0,-1.9844116E0,-2.117677E1,-2.7063768E0,-1.0868362E1,-6.820526E-2,-8.381445E0,-5.9247656E0,-3.4348042E0,-1.4236145E0,1.7634041E0,1.951587E0,4.3872237E0,-4.269463E0,-1.145559E0,-2.22251E0,-4.7388487E0,-9.402973E0,-7.83786E0,-3.5975342E0,-6.544684E0,-4.547687E0,-2.4840462E0,-5.099287E-1,-4.062686E0,8.041779E-1,1.1355667E0,-1.6254761E0,8.815277E-1,-1.935743E0,-1.0446978E0,-6.7925185E-1,-1.5800608E0,5.6559243E-4,-8.3956605E-1,-1.493929E0,-8.190293E-1,-4.2905578E-1,-1.0588244E0,-5.596917E-1,4.6088662E-2,-2.3375778E-1,2.346643E-1,-1.6888885E-1,-9.3122715E-1,6.945394E-2,2.5784644E-1],"categories":[],"categories_nodes":[],"categories_segments":[],"categories_sizes":[],"default_left":[0,0,0,0,0,0,0,0,0,0,0,0,0,0,0,0,0,0,0,0,0,0,0,0,0,0,0,0,0,0,0,0,0,0,0,0,0,0,0,0,0,0,0,0,0,0,0,0,0,0,0,0,0,0,0,0,0,0,0,0,0,0,0,0,0,0,0,0,0,0,0,0,0],"id":9,"left_children":[1,3,5,7,9,11,13,-1,15,17,19,21,23,-1,25,27,-1,29,31,33,35,-1,37,-1,-1,-1,-1,-1,39,-1,41,-1,43,45,47,49,51,-1,-1,-1,-1,-1,53,55,57,59,61,63,65,67,69,-1,71,-1,-1,-1,-1,-1,-1,-1,-1,-1,-1,-1,-1,-1,-1,-1,-1,-1,-1,-1,-1],"loss_changes":[2.5161727E5,1.3785414E4,7.6552656E3,1.4026875E3,3.1375664E3,1.1810938E3,1.0365234E3,0E0,8.7509766E1,1.2462031E3,4.910918E2,2.3126172E2,1.3401562E2,0E0,7.578906E1,4.8898438E1,0E0,1.2374609E2,5.880078E1,1.0343579E2,7.199401E1,0E0,1.0307422E2,0E0,0E0,0E0,0E0,0E0,3.0544922E1,0E0,7.456348E1,0E0,5.9015625E1,5.7246094E1,2.3620056E1,4.6153965E1,1.1024685E1,0E0,0E0,0E0,0E0,0E0,1.9078836E2,3.933496E1,1.8098633E1,3.0269852E1,6.6837036E1,1.3748016E1,1.7714287E1,1.9115791E1,5.61747E0,0E0,7.6362896E-1,0E0,0E0,0E0,0E0,0E0,0E0,0E0,0E0,0E0,0E0,0E0,0E0,0E0,0E0,0E0,0E0,0E0,0E0,0E0,0E0],"parents":[2147483647,0,0,1,1,2,2,3,3,4,4,5,5,6,6,8,8,9,9,10,10,11,11,12,12,14,14,15,15,17,17,18,18,19,19,20,20,22,22,28,28,30,30,32,32,33,33,34,34,35,35,36,36,42,42,43,43,44,44,45,45,46,46,47,47,48,48,49,49,50,50,52,52],"right_children":[2,4,6,8,10,12,14,-1,16,18,20,22,24,-1,26,28,-1,30,32,34,36,-1,38,-1,-1,-1,-1,-1,40,-1,42,-1,44,46,48,50,52,-1,-1,-1,-1,-1,54,56,58,60,62,64,66,68,70,-1,72,-1,-1,-1,-1,-1,-1,-1,-1,-1,-1,-1,-1,-1,-1,-1,-1,-1,-1,-1,-1],"split_conditions":[3.4629E2,1.282E2,4.7412143E2,3.2426682E0,1.9197E2,4.2401E2,5.095E2,-6.3932023E0,8.790328E0,1.7113E2,2.2782E2,-9.1297525E-1,4.1882428E2,6.6233025E0,-1.0770004E1,-7.26001E0,-3.133766E0,1.5373E2,2.6615167E0,2.1188E2,1.0149994E1,2.128129E0,3.5832E2,2.5752456E0,5.656324E0,3.8449178E0,9.490774E0,-1.9844116E0,9.200012E0,-2.7063768E0,4.800003E0,-6.820526E-2,1.7655286E2,-2.1100006E0,-2.100006E0,3.112999E0,-1.5912218E0,1.951587E0,4.3872237E0,-4.269463E0,-1.145559E0,-2.22251E0,1.6102E2,1.2444964E1,-7.26001E0,1.9759E2,6.0399933E0,-1.0440002E1,2.2219467E2,7.3399734E-1,-5.155273E-1,8.041779E-1,-9.8596394E-1,-1.6254761E0,8.815277E-1,-1.935743E0,-1.0446978E0,-6.7925185E-1,-1.5800608E0,5.6559243E-4,-8.3956605E-1,-1.493929E0,-8.190293E-1,-4.2905578E-1,-1.0588244E0,-5.596917E-1,4.6088662E-2,-2.3375778E-1,2.346643E-1,-1.6888885E-1,-9.3122715E-1,6.945394E-2,2.5784644E-1],"split_indices":[3,3,6,7,3,3,3,0,7,3,3,0,6,0,12,9,0,3,7,3,8,0,11,0,0,0,0,0,13,0,13,0,6,12,13,9,1,0,0,0,0,0,11,7,9,10,8,13,5,9,0,0,0,0,0,0,0,0,0,0,0,0,0,0,0,0,0,0,0,0,0,0,0],"split_type":[0,0,0,0,0,0,0,0,0,0,0,0,0,0,0,0,0,0,0,0,0,0,0,0,0,0,0,0,0,0,0,0,0,0,0,0,0,0,0,0,0,0,0,0,0,0,0,0,0,0,0,0,0,0,0,0,0,0,0,0,0,0,0,0,0,0,0,0,0,0,0,0,0],"sum_hessian":[8.28E2,6.04E2,2.24E2,9.7E1,5.07E2,1.55E2,6.9E1,1.3E1,8.4E1,3.91E2,1.16E2,8.4E1,7.1E1,4.8E1,2.1E1,6E1,2.4E1,1.52E2,2.39E2,8.7E1,2.9E1,5E0,7.9E1,3E0,6.8E1,2E0,1.9E1,3E0,5.7E1,6.8E1,8.4E1,1E0,2.38E2,5.5E1,3.2E1,1.9E1,1E1,3E0,7.6E1,5.6E1,1E0,8E1,4E0,7.7E1,1.61E2,1.3E1,4.2E1,1.3E1,1.9E1,1.5E1,4E0,1E0,9E0,3E0,1E0,7.1E1,6E0,3E0,1.58E2,2E0,1.1E1,2.9E1,1.3E1,4E0,9E0,1.7E1,2E0,1.1E1,4E0,1E0,3E0,2E0,7E0],"tree_param":{"num_deleted":"0","num_feature":"15","num_nodes":"73","size_leaf_vector":"1"}},{"base_weights":[5.920967E-3,-8.54749E0,2.3005068E1,-1.6739735E1,-6.6931744E0,1.9982796E1,3.156224E1,-5.5095153E0,-1.5396902E1,-7.831687E0,-3.3325098E0,1.7886051E1,2.4483383E1,2.723087E1,7.443058E0,-1.6601088E1,-2.3987253E0,-9.54462E0,-6.754982E0,-4.676856E0,-1.1686798E0,1.369925E1,2.015965E1,2.4974487E1,1.6601746E0,1.3231964E0,5.526168E0,-6.352181E-1,-3.349088E0,-9.939566E0,-6.506302E0,-5.7130146E0,-7.11385E0,-3.8088453E0,-5.4062448E0,-2.2821193E0,6.155853E-1,1.3990518E1,9.9159956E-1,4.0864406E0,1.3615296E0,1.1916627E0,2.5246527E1,-2.0192814E0,-5.920543E0,7.9337466E-1,-7.308527E0,-6.1384585E-2,-5.7939534E0,-7.383249E0,-5.1061687E0,-9.3064654E-1,-2.442389E0,-6.792938E0,-3.8281438E0,-1.0375255E0,-1.9028558E0,-1.7073528E-1,1.8164082E0,2.8297594E0,7.3428345E-1,1.9085978E0,2.5721832E1,-4.5322648E-1,-1.6189636E0,-9.1377324E-1,-1.8086737E0,-1.1732558E0,-1.3097687E-1,-2.4995422E-1,-1.4834327E0,-4.0920526E-1,-1.2634209E0,-9.4468796E-1,-3.646706E-1,-2.068682E0,-9.0649855E-1,-1.2268829E-1,-7.916414E-1,-4.2281792E-1,1.2650655E-1,-1.4900628E-1,1.24689735E-1,1.5346628E-1,6.6181844E-1,4.7794166E0,7.7814913E0],"categories":[],"categories_nodes":[],"categories_segments":[],"categories_sizes":[],"default_left":[0,0,0,0,0,0,0,0,0,0,0,0,0,0,0,0,0,0,0,0,0,0,0,0,0,0,0,0,0,0,0,0,0,0,0,0,0,0,0,0,0,0,0,0,0,0,0,0,0,0,0,0,0,0,0,0,0,0,0,0,0,0,0,0,0,0,0,0,0,0,0,0,0,0,0,0,0,0,0,0,0,0,0,0,0,0,0],"id":10,"left_children":[1,3,5,7,9,11,13,-1,15,17,19,21,23,25,-1,27,-1,29,31,33,35,37,39,41,-1,-1,-1,-1,-1,43,45,47,49,51,53,55,57,59,-1,-1,-1,-1,61,-1,63,-1,65,-1,67,69,71,-1,73,75,77,-1,79,81,83,-1,-1,-1,85,-1,-1,-1,-1,-1,-1,-1,-1,-1,-1,-1,-1,-1,-1,-1,-1,-1,-1,-1,-1,-1,-1,-1,-1],"loss_changes":[1.6327848E5,9.078516E3,5.1882656E3,1.1868066E3,1.8678496E3,1.156875E3,3.8226562E2,0E0,2.1480664E2,6.1608203E2,3.6396924E2,8.5659766E2,1.9800195E2,1.1402539E2,0E0,8.634375E1,0E0,1.0332715E2,4.5362305E1,2.8791504E1,1.00738396E2,4.520703E1,1.3383984E2,1.0305859E2,0E0,0E0,0E0,0E0,0E0,1.7126953E1,1.8862701E2,2.622583E1,5.2624023E1,3.363391E1,6.152942E1,2.4289246E1,1.919476E1,1.8286133E1,0E0,0E0,0E0,0E0,1.1280859E2,0E0,3.727591E1,0E0,4.4233826E1,0E0,1.9574219E1,2.0892578E1,7.230469E1,0E0,1.5392395E1,1.1363165E2,6.3522644E0,0E0,1.6868454E1,6.3937464E0,9.988348E0,0E0,0E0,0E0,1.7700781E2,0E0,0E0,0E0,0E0,0E0,0E0,0E0,0E0,0E0,0E0,0E0,0E0,0E0,0E0,0E0,0E0,0E0,0E0,0E0,0E0,0E0,0E0,0E0,0E0],"parents":[2147483647,0,0,1,1,2,2,3,3,4,4,5,5,6,6,8,8,9,9,10,10,11,11,12,12,13,13,15,15,17,17,18,18,19,19,20,20,21,21,22,22,23,23,29,29,30,30,31,31,32,32,33,33,34,34,35,35,36,36,37,37,42,42,44,44,46,46,48,48,49,49,50,50,52,52,53,53,54,54,56,56,57,57,58,58,62,62],"right_children":[2,4,6,8,10,12,14,-1,16,18,20,22,24,26,-1,28,-1,30,32,34,36,38,40,42,-1,-1,-1,-1,-1,44,46,48,50,52,54,56,58,60,-1,-1,-1,-1,62,-1,64,-1,66,-1,68,70,72,-1,74,76,78,-1,80,82,84,-1,-1,-1,86,-1,-1,-1,-1,-1,-1,-1,-1,-1,-1,-1,-1,-1,-1,-1,-1,-1,-1,-1,-1,-1,-1,-1,-1],"split_conditions":[3.4629E2,1.3573E2,4.8301855E2,5.7107E1,1.8972E2,1.6330442E1,5.095E2,-5.5095153E0,1.19780426E2,1.7113E2,2.1796E2,4.0949E2,5.0195532E2,-1.0959226E0,7.443058E0,-7.8099976E0,-2.3987253E0,1.0168388E1,4.0347247E0,1E0,2.3496E2,4.18987E2,1.2399994E1,3.9387E2,1.6601746E0,1.3231964E0,5.526168E0,-6.352181E-1,-3.349088E0,2.630005E0,1.0215597E1,1.7027567E2,1.9066434E2,3.4100037E0,6.0399933E0,-1.8657564E0,2.5152E2,8.880005E0,9.9159956E-1,4.0864406E0,1.3615296E0,1.1916627E0,3.9651E2,-2.0192814E0,4.5476565E0,7.9337466E-1,4.1999817E-1,-6.1384585E-2,9.899994E0,-2.7504115E0,1.8406E2,-9.3064654E-1,-4.5899963E0,1.3102564E0,6.090027E0,-1.0375255E0,1.1350006E1,1.0149994E1,1.3149994E1,2.8297594E0,7.3428345E-1,1.9085978E0,2.42858E7,-4.5322648E-1,-1.6189636E0,-9.1377324E-1,-1.8086737E0,-1.1732558E0,-1.3097687E-1,-2.4995422E-1,-1.4834327E0,-4.0920526E-1,-1.2634209E0,-9.4468796E-1,-3.646706E-1,-2.068682E0,-9.0649855E-1,-1.2268829E-1,-7.916414E-1,-4.2281792E-1,1.2650655E-1,-1.4900628E-1,1.24689735E-1,1.5346628E-1,6.6181844E-1,4.7794166E0,7.7814913E0],"split_indices":[3,3,6,3,3,7,3,0,6,3,3,3,5,0,0,12,0,7,7,14,3,5,8,3,0,0,0,0,0,9,7,5,5,8,8,1,3,13,0,0,0,0,11,0,7,0,9,0,8,2,10,0,12,0,8,0,8,8,8,0,0,0,4,0,0,0,0,0,0,0,0,0,0,0,0,0,0,0,0,0,0,0,0,0,0,0,0],"split_type":[0,0,0,0,0,0,0,0,0,0,0,0,0,0,0,0,0,0,0,0,0,0,0,0,0,0,0,0,0,0,0,0,0,0,0,0,0,0,0,0,0,0,0,0,0,0,0,0,0,0,0,0,0,0,0,0,0,0,0,0,0,0,0,0,0,0,0,0,0,0,0,0,0,0,0,0,0,0,0,0,0,0,0,0,0,0,0],"sum_hessian":[8.28E2,6.04E2,2.24E2,1.1E2,4.94E2,1.68E2,5.6E1,1E1,1E2,3.68E2,1.26E2,1.18E2,5E1,3.5E1,2.1E1,7.1E1,2.9E1,1.39E2,2.29E2,7.7E1,4.9E1,4.4E1,7.4E1,4.8E1,2E0,1E0,3.4E1,1E0,7E1,1.21E2,1.8E1,6.3E1,1.66E2,3.8E1,3.9E1,3E1,1.9E1,4.2E1,2E0,7.2E1,2E0,1E0,4.7E1,1.15E2,6E0,1E0,1.7E1,1E0,6.2E1,1.44E2,2.2E1,2.2E1,1.6E1,1.9E1,2E1,2E0,2.8E1,1.2E1,7E0,4.1E1,1E0,2E0,4.5E1,3E0,3E0,8E0,9E0,6.1E1,1E0,1E0,1.43E2,7E0,1.5E1,2E0,1.4E1,6E0,1.3E1,1E0,1.9E1,2.6E1,2E0,7E0,5E0,5E0,2E0,4.2E1,3E0],"tree_param":{"num_deleted":"0","num_feature":"15","num_nodes":"87","size_leaf_vector":"1"}},{"base_weights":[1.9527048E-2,-6.8865166E0,1.8589024E1,-1.3080463E1,-5.278766E0,1.5571351E1,2.4187002E1,-1.7665613E1,-1.1003974E1,-6.106816E0,-2.456124E0,1.4418708E1,2.0469673E1,2.0933252E1,2.9133448E1,-4.5077853E0,-3.0051813E0,-1.9047955E0,-1.2148233E1,-7.496396E0,-5.3113112E0,-3.0790217E0,5.3201216E-1,1.1198253E1,3.247802E0,7.6380954E0,1.8233221E1,2.1559254E1,1.09873905E1,1.1908783E0,2.9771399E1,-2.4527013E0,-6.9609374E-1,-1.9994057E0,-7.1657796E0,-7.6926236E0,-5.1410484E0,-3.835856E0,-2.1273768E0,-1.3846295E-1,1.5550327E0,1.0333997E0,1.1629117E1,1.8845104E0,1.9462751E1,4.352206E0,1.2479371E0,2.730562E0,3.2571413E-2,1.4800233E0,3.0347212E1,-5.5245973E-2,-7.2208905E0,-8.410733E0,-4.511953E-1,-2.3948078E0,-5.217543E0,-2.4083574E0,-4.4982533E0,-1.3912897E0,-2.9839454E0,2.3134765E-1,-2.0567475E-1,6.18571E-1,5.819224E-1,1.369152E0,1.2204232E1,1.0413026E0,3.9830475E0,2.339856E0,6.2827473E0,-1.6388884E0,-1.3009949E0,-7.0083827E-1,-1.8083247E0,4.837036E-2,-8.050348E-1,-1.0762862E0,-7.159677E-1,1.1889649E-2,-5.8117634E-1,-9.8446876E-1,-2.2777589E-1,-3.4293997E-1,4.905823E-2,-2.4152528E-1,-7.838992E-1,-1.3609162E-1,8.165317E-2,1.9635545E-1,-1.4378865E-2,2.4953184E0,9.7356766E-1],"categories":[],"categories_nodes":[],"categories_segments":[],"categories_sizes":[],"default_left":[0,0,0,0,0,0,0,0,0,0,0,0,0,0,0,0,0,0,0,0,0,0,0,0,0,0,0,0,0,0,0,0,0,0,0,0,0,0,0,0,0,0,0,0,0,0,0,0,0,0,0,0,0,0,0,0,0,0,0,0,0,0,0,0,0,0,0,0,0,0,0,0,0,0,0,0,0,0,0,0,0,0,0,0,0,0,0,0,0,0,0,0,0],"id":11,"left_children":[1,3,5,7,9,11,13,15,17,19,21,23,25,27,29,-1,-1,-1,31,33,35,37,39,41,-1,-1,43,45,47,-1,49,-1,-1,-1,51,53,55,57,59,61,63,-1,65,-1,67,-1,-1,-1,-1,-1,69,-1,71,73,-1,75,77,79,81,83,85,87,-1,89,-1,-1,91,-1,-1,-1,-1,-1,-1,-1,-1,-1,-1,-1,-1,-1,-1,-1,-1,-1,-1,-1,-1,-1,-1,-1,-1,-1,-1],"loss_changes":[1.0644044E5,5.9557363E3,3.4242734E3,9.8621484E2,1.1115742E3,5.461094E2,6.2941797E2,1.3730469E2,3.33291E1,3.713994E2,2.0824286E2,5.4506445E2,3.340879E2,7.442578E1,2.3676758E2,0E0,0E0,0E0,3.2792969E0,3.832129E1,5.7759277E1,5.81015E1,1.3933511E1,6.464795E1,0E0,0E0,8.743652E1,6.408203E0,1.4203613E2,0E0,1.23234375E2,0E0,0E0,0E0,4.3948242E1,3.5683167E1,3.5191895E1,3.644513E1,2.2960358E1,4.5161915E0,8.348293E0,0E0,3.7496094E1,0E0,3.1776367E1,0E0,0E0,0E0,0E0,0E0,1.4958398E2,0E0,3.0333008E1,5.4622803E0,0E0,3.536326E1,3.9782715E1,2.227304E1,4.1408386E1,1.3652779E1,2.6841614E1,1.8909582E0,0E0,1.5752718E0,0E0,0E0,1.5194824E1,0E0,0E0,0E0,0E0,0E0,0E0,0E0,0E0,0E0,0E0,0E0,0E0,0E0,0E0,0E0,0E0,0E0,0E0,0E0,0E0,0E0,0E0,0E0,0E0,0E0,0E0],"parents":[2147483647,0,0,1,1,2,2,3,3,4,4,5,5,6,6,7,7,8,8,9,9,10,10,11,11,12,12,13,13,14,14,18,18,19,19,20,20,21,21,22,22,23,23,26,26,27,27,28,28,30,30,34,34,35,35,36,36,37,37,38,38,39,39,40,40,42,42,44,44,50,50,52,52,53,53,55,55,56,56,57,57,58,58,59,59,60,60,61,61,63,63,66,66],"right_children":[2,4,6,8,10,12,14,16,18,20,22,24,26,28,30,-1,-1,-1,32,34,36,38,40,42,-1,-1,44,46,48,-1,50,-1,-1,-1,52,54,56,58,60,62,64,-1,66,-1,68,-1,-1,-1,-1,-1,70,-1,72,74,-1,76,78,80,82,84,86,88,-1,90,-1,-1,92,-1,-1,-1,-1,-1,-1,-1,-1,-1,-1,-1,-1,-1,-1,-1,-1,-1,-1,-1,-1,-1,-1,-1,-1,-1,-1],"split_conditions":[3.4629E2,1.4112E2,4.7328E2,8.8008E1,1.9312E2,1.6716288E1,5.0416E2,5.7107E1,3.25721E8,1.7151857E2,2.3496E2,4.1184E2,3.9027E2,5.04437E2,4.6777533E2,-4.5077853E0,-3.0051813E0,-1.9047955E0,9.085999E0,-4.6799927E0,-6.369995E0,2.1188E2,2.5152E2,-9.1297525E-1,3.247802E0,7.6380954E0,-9.599976E0,4.33684E7,1.148536E0,1.1908783E0,-1.6765553E0,-2.4527013E0,-6.9609374E-1,-1.9994057E0,2.6615167E0,2.0216818E1,2.990262E0,1.8829134E2,2.2077733E2,2.4484799E2,1.7299957E0,1.0333997E0,-2.4059412E0,1.8845104E0,4.0393E2,4.352206E0,1.2479371E0,2.730562E0,3.2571413E-2,1.4800233E0,-1.0770004E1,-5.5245973E-2,1.5078833E2,1.7412285E2,-4.511953E-1,-4.5999146E-1,1.9066434E2,-5.849991E-1,4.1374484E-1,2.3054E2,2.1991E2,-1.6765553E0,-2.0567475E-1,2.5656E2,5.819224E-1,1.369152E0,4.123343E2,1.0413026E0,3.9830475E0,2.339856E0,6.2827473E0,-1.6388884E0,-1.3009949E0,-7.0083827E-1,-1.8083247E0,4.837036E-2,-8.050348E-1,-1.0762862E0,-7.159677E-1,1.1889649E-2,-5.8117634E-1,-9.8446876E-1,-2.2777589E-1,-3.4293997E-1,4.905823E-2,-2.4152528E-1,-7.838992E-1,-1.3609162E-1,8.165317E-2,1.9635545E-1,-1.4378865E-2,2.4953184E0,9.7356766E-1],"split_indices":[3,10,3,3,3,7,3,3,4,6,3,3,10,5,5,0,0,0,13,13,12,3,3,0,0,0,12,4,0,0,1,0,0,0,7,7,7,5,5,5,9,0,2,0,3,0,0,0,0,0,12,0,5,6,0,9,5,13,1,3,11,1,0,3,0,0,6,0,0,0,0,0,0,0,0,0,0,0,0,0,0,0,0,0,0,0,0,0,0,0,0,0,0],"split_type":[0,0,0,0,0,0,0,0,0,0,0,0,0,0,0,0,0,0,0,0,0,0,0,0,0,0,0,0,0,0,0,0,0,0,0,0,0,0,0,0,0,0,0,0,0,0,0,0,0,0,0,0,0,0,0,0,0,0,0,0,0,0,0,0,0,0,0,0,0,0,0,0,0,0,0,0,0,0,0,0,0,0,0,0,0,0,0,0,0,0,0,0,0],"sum_hessian":[8.28E2,6.04E2,2.24E2,1.23E2,4.81E2,1.48E2,7.6E1,3.6E1,8.7E1,3.71E2,1.1E2,1.23E2,2.5E1,4.9E1,2.7E1,1E1,2.6E1,4.2E1,4.5E1,1.32E2,2.39E2,9.1E1,1.9E1,4.7E1,7.6E1,1E0,2.4E1,4.5E1,4E0,1E0,2.6E1,4.4E1,1E0,1.2E1,1.2E2,1.3E1,2.26E2,4.9E1,4.2E1,1.2E1,7E0,4E0,4.3E1,4E0,2E1,4.4E1,1E0,3E0,1E0,1E0,2.5E1,1E0,1.19E2,1.1E1,2E0,7E0,2.19E2,1.7E1,3.2E1,2.4E1,1.8E1,9E0,3E0,5E0,2E0,6E0,3.7E1,1E0,1.9E1,2E0,2.3E1,4.6E1,7.3E1,2E0,9E0,3E0,4E0,1.97E2,2.2E1,3E0,1.4E1,2.8E1,4E0,2E1,4E0,7E0,1.1E1,1E0,8E0,3E0,2E0,3.5E1,2E0],"tree_param":{"num_deleted":"0","num_feature":"15","num_nodes":"93","size_leaf_vector":"1"}},{"base_weights":[3.691718E-2,-5.551641E0,1.5063766E1,-1.0844131E1,-4.314049E0,1.3032487E1,2.0822052E1,-3.5076435E0,-9.80887E0,-5.415931E0,-2.8209443E0,1.1601092E1,1.6116869E1,2.244245E1,1.3611286E1,-2.3532045E0,-1.7372093E0,-6.4214983E0,-4.7923336E0,-3.4480755E0,-7.3262054E-1,7.549231E0,1.2545255E1,6.874286E0,1.5064349E1,1.7975222E1,2.7127724E1,2.9315187E-2,1.472113E1,-6.5036726E0,-1.4596761E0,8.4413606E-1,-4.8671E0,-3.5319629E0,-6.7834216E-1,-1.2750436E0,1.0913061E0,7.885624E0,4.9076134E-1,1.2879473E1,1.0882223E0,1.5372332E1,1.0230347E0,7.051277E0,1.9093506E1,9.0531313E-1,5.6158037E0,4.379242E-1,3.1322603E0,-5.928609E0,-7.648059E0,-4.982895E-1,6.0386658E-2,-7.550049E0,-4.6612344E0,-3.6363573E0,-1.1330738E0,7.634379E-1,-1.5900917E0,-2.0655534E0,-4.9910408E-1,5.9938663E-1,6.456188E-1,1.6114196E0,4.1132203E-1,1.2972989E1,4.5565492E-1,1.5956604E0,1.5863191E1,3.863617E-1,1.6227661E0,1.1710308E0,4.015097E0,-1.1959782E0,-2.236313E-1,-3.4918365E-1,-1.55732E0,-1.663112E0,-5.473663E-1,-9.66222E-1,-4.5544812E-1,-5.8289E-1,-8.04725E-1,3.3843995E-3,-2.5995526E-1,1.1657715E-2,2.1737365E-1,-4.354599E-1,-1.3371786E-1,-2.1648255E-1,-8.0305785E-1,-2.8063202E-1,1.0629927E-2,1.5337728E-1,1.3321941E-2,2.2177532E0,2.7977793E0,3.295813E0,1.8432302E0],"categories":[],"categories_nodes":[],"categories_segments":[],"categories_sizes":[],"default_left":[0,0,0,0,0,0,0,0,0,0,0,0,0,0,0,0,0,0,0,0,0,0,0,0,0,0,0,0,0,0,0,0,0,0,0,0,0,0,0,0,0,0,0,0,0,0,0,0,0,0,0,0,0,0,0,0,0,0,0,0,0,0,0,0,0,0,0,0,0,0,0,0,0,0,0,0,0,0,0,0,0,0,0,0,0,0,0,0,0,0,0,0,0,0,0,0,0,0,0],"id":12,"left_children":[1,3,5,7,9,11,13,-1,15,17,19,21,23,25,27,-1,-1,29,31,33,35,37,39,-1,41,43,45,-1,47,49,51,-1,53,55,57,59,61,63,-1,65,-1,67,-1,69,71,-1,-1,-1,-1,73,75,-1,-1,77,79,81,83,85,87,89,91,-1,93,-1,-1,95,-1,-1,97,-1,-1,-1,-1,-1,-1,-1,-1,-1,-1,-1,-1,-1,-1,-1,-1,-1,-1,-1,-1,-1,-1,-1,-1,-1,-1,-1,-1,-1,-1],"loss_changes":[6.970174E4,3.9159375E3,2.3603906E3,6.180039E2,7.9417285E2,5.591582E2,3.6053516E2,0E0,1.1975098E2,1.4605957E2,2.738108E2,3.60542E2,4.6209375E2,4.5423047E2,1.9211084E2,0E0,0E0,3.3318848E1,1.4049219E2,3.524414E1,5.0858456E1,2.3501831E1,1.554834E2,0E0,7.457617E1,1.8298535E2,3.0290625E2,0E0,1.0708911E2,2.2441406E1,6.2049847E0,0E0,6.2569824E1,3.5197388E1,9.10119E0,2.2891197E1,8.256888E0,6.418701E0,0E0,5.9668945E1,0E0,4.7652344E1,0E0,6.084488E0,1.8145117E2,0E0,0E0,0E0,0E0,1.1321777E1,1.1753662E1,0E0,0E0,1.7772034E1,5.6630127E1,3.0209106E1,1.5556536E0,6.208482E-1,7.087345E-1,3.2074226E1,1.0559212E1,0E0,7.2128344E-1,0E0,0E0,1.5243164E1,0E0,0E0,2.8251953E1,0E0,0E0,0E0,0E0,0E0,0E0,0E0,0E0,0E0,0E0,0E0,0E0,0E0,0E0,0E0,0E0,0E0,0E0,0E0,0E0,0E0,0E0,0E0,0E0,0E0,0E0,0E0,0E0,0E0,0E0],"parents":[2147483647,0,0,1,1,2,2,3,3,4,4,5,5,6,6,8,8,9,9,10,10,11,11,12,12,13,13,14,14,17,17,18,18,19,19,20,20,21,21,22,22,24,24,25,25,26,26,28,28,29,29,30,30,32,32,33,33,34,34,35,35,36,36,37,37,39,39,41,41,43,43,44,44,49,49,50,50,53,53,54,54,55,55,56,56,57,57,58,58,59,59,60,60,62,62,65,65,68,68],"right_children":[2,4,6,8,10,12,14,-1,16,18,20,22,24,26,28,-1,-1,30,32,34,36,38,40,-1,42,44,46,-1,48,50,52,-1,54,56,58,60,62,64,-1,66,-1,68,-1,70,72,-1,-1,-1,-1,74,76,-1,-1,78,80,82,84,86,88,90,92,-1,94,-1,-1,96,-1,-1,98,-1,-1,-1,-1,-1,-1,-1,-1,-1,-1,-1,-1,-1,-1,-1,-1,-1,-1,-1,-1,-1,-1,-1,-1,-1,-1,-1,-1,-1,-1],"split_conditions":[3.4629E2,1.3732E2,4.8301855E2,6.7472E1,1.825E2,1.6330442E1,5.0195532E2,-3.5076435E0,9.1356E1,1.69E2,2.1796E2,4.0256E2,3.9027E2,4.9319366E2,-2.209839E0,-2.3532045E0,-1.7372093E0,1.87001E2,1.5554857E2,2.299586E0,1.1350006E1,1.0320007E1,1.2399994E1,6.874286E0,5.0195532E2,-7.7900085E0,4.4158E2,2.9315187E-2,1.1421968E1,8.887234E-1,-5.038447E-1,8.4413606E-1,-6.369995E0,2.2432642E0,1.8274E2,2.2722E2,-1.5912218E0,2.84248E7,4.9076134E-1,1.6197012E1,1.0882223E0,4.0256E2,1.0230347E0,-1.1870531E0,-5.562016E-1,9.0531313E-1,5.6158037E0,4.379242E-1,3.1322603E0,1.263325E8,2.26705E7,-4.982895E-1,6.0386658E-2,8.3238316E-1,7.450012E0,1E0,-1.0108491E0,-4.9654874E-1,-1.0508865E0,7.710022E0,-4.6900024E0,5.9938663E-1,2.671928E-1,1.6114196E0,4.1132203E-1,9.627882E0,4.5565492E-1,1.5956604E0,5E0,3.863617E-1,1.6227661E0,1.1710308E0,4.015097E0,-1.1959782E0,-2.236313E-1,-3.4918365E-1,-1.55732E0,-1.663112E0,-5.473663E-1,-9.66222E-1,-4.5544812E-1,-5.8289E-1,-8.04725E-1,3.3843995E-3,-2.5995526E-1,1.1657715E-2,2.1737365E-1,-4.354599E-1,-1.3371786E-1,-2.1648255E-1,-8.0305785E-1,-2.8063202E-1,1.0629927E-2,1.5337728E-1,1.3321941E-2,2.2177532E0,2.7977793E0,3.295813E0,1.8432302E0],"split_indices":[3,5,6,3,3,7,5,0,3,10,3,11,10,5,2,0,0,5,6,2,8,8,8,0,5,9,3,0,7,0,0,0,12,0,10,10,1,4,0,7,0,11,0,1,0,0,0,0,0,4,4,0,0,2,8,14,1,0,0,8,12,0,1,0,0,7,0,0,14,0,0,0,0,0,0,0,0,0,0,0,0,0,0,0,0,0,0,0,0,0,0,0,0,0,0,0,0,0,0],"split_type":[0,0,0,0,0,0,0,0,0,0,0,0,0,0,0,0,0,0,0,0,0,0,0,0,0,0,0,0,0,0,0,0,0,0,0,0,0,0,0,0,0,0,0,0,0,0,0,0,0,0,0,0,0,0,0,0,0,0,0,0,0,0,0,0,0,0,0,0,0,0,0,0,0,0,0,0,0,0,0,0,0,0,0,0,0,0,0,0,0,0,0,0,0,0,0,0,0,0,0],"sum_hessian":[8.28E2,6.04E2,2.24E2,1.13E2,4.91E2,1.68E2,5.6E1,1.3E1,1E2,2.81E2,2.1E2,1.18E2,5E1,4.4E1,1.2E1,3.3E1,6.7E1,1.04E2,1.77E2,1.61E2,4.9E1,2.4E1,9.4E1,1E0,4.9E1,2.5E1,1.9E1,1E0,1.1E1,1.02E2,2E0,1E0,1.76E2,1.56E2,5E0,3.8E1,1.1E1,2.2E1,2E0,8.9E1,5E0,4.7E1,2E0,3E0,2.2E1,1E0,1.8E1,1E0,1E1,7.2E1,3E1,1E0,1E0,1E1,1.66E2,1.49E2,7E0,2E0,3E0,1.8E1,2E1,1E0,1E1,2.1E1,1E0,8.8E1,1E0,4E0,4.3E1,1E0,2E0,2E0,2E1,7.1E1,1E0,1E0,2.9E1,8E0,2E0,1.54E2,1.2E1,5.5E1,9.4E1,1E0,6E0,1E0,1E0,1E0,2E0,1.3E1,5E0,7E0,1.3E1,8E0,2E0,3.5E1,5.3E1,3.8E1,5E0],"tree_param":{"num_deleted":"0","num_feature":"15","num_nodes":"99","size_leaf_vector":"1"}},{"base_weights":[5.8920152E-2,-4.468848E0,1.2233325E1,-9.476411E0,-3.5981677E0,1.03150835E1,1.6333502E1,-3.050435E0,-8.552237E0,-4.7183447E0,-2.5234206E0,9.307622E0,1.3656339E1,1.75873E1,1.0563751E1,-9.115802E0,-5.284553E0,-5.7043715E0,-4.1913767E0,-3.02491E0,-8.245697E-1,6.1399255E0,1.0013529E1,6.1868563E0,1.2195362E1,1.977156E1,1.1877664E1,1.7050476E0,1.1795471E1,-9.186389E0,-4.5276338E-1,-5.2502442E-2,-5.6506705E0,-6.86967E0,-4.832746E0,-4.008429E0,-1.2876271E0,-2.8605475E0,-4.6742983E0,-1.3737026E0,3.972946E-1,6.396445E0,4.2532754E-1,7.6227674E0,1.0718208E1,1.403511E1,7.806211E0,1.621525E1,4.603948E0,1.3644358E1,6.0702157E0,4.8513183E-1,2.6382446E-2,3.9413148E-1,2.489997E0,-4.3487396E0,-9.3503275E0,-6.3226104E0,-2.6066694E-1,-2.8258514E-1,-6.99221E0,-5.2048597E0,-2.4765522E0,-5.5854144E0,-3.6843016E0,-3.0800695E0,-1.2972797E0,-5.729064E0,-9.97049E-1,-7.224223E-1,-1.1764117E0,-1.3991135E-1,1.2205925E0,6.5189238E0,3.7019044E-1,1.0980277E0,9.653323E0,1.14092655E1,7.2394347E0,1.5440837E0,1.54382305E1,1.774051E0,9.084997E-1,3.369314E0,1.3202759E0,1.1408794E0,2.913881E0,5.0998944E-1,1.4385728E0,-1.0578598E0,-1.5270615E-1,-4.9638748E-1,-1.8844473E0,-1.3237273E0,-3.3623505E-1,-6.582939E-1,-1.4505137E0,-1.4628755E-1,-1.0583766E0,-2.0369975E-1,-8.088989E-1,-1.2713264E0,-5.3883886E-1,-6.4878774E-1,-1.0205525E0,-6.484523E-1,-3.3262154E-1,5.3879805E-2,-5.0949687E-1,-1.3574549E0,-3.3025438E-1,-2.3933868E-1,-1.9847108E-2,-2.0313478E-1,-7.6059264E-1,2.8365174E-2,-1.6185533E-1,8.973796E-2,4.7150674E-1,1.4056509E0,7.978668E-1,2.0104444E0,5.265442E-1,1.3729482E0,2.4578736E0,7.4143577E-1,1.726969E0,7.5193787E-1,3.186632E0],"categories":[],"categories_nodes":[],"categories_segments":[],"categories_sizes":[],"default_left":[0,0,0,0,0,0,0,0,0,0,0,0,0,0,0,0,0,0,0,0,0,0,0,0,0,0,0,0,0,0,0,0,0,0,0,0,0,0,0,0,0,0,0,0,0,0,0,0,0,0,0,0,0,0,0,0,0,0,0,0,0,0,0,0,0,0,0,0,0,0,0,0,0,0,0,0,0,0,0,0,0,0,0,0,0,0,0,0,0,0,0,0,0,0,0,0,0,0,0,0,0,0,0,0,0,0,0,0,0,0,0,0,0,0,0,0,0,0,0,0,0,0,0,0,0,0,0,0,0],"id":13,"left_children":[1,3,5,7,9,11,13,-1,15,17,19,21,23,25,27,29,31,33,35,37,39,41,43,-1,45,47,49,51,53,55,-1,-1,57,59,61,63,-1,65,67,69,71,73,-1,75,77,79,81,83,-1,85,87,-1,-1,-1,-1,89,91,93,-1,-1,95,97,99,101,103,105,107,109,111,-1,113,115,117,119,-1,-1,121,123,125,-1,127,-1,-1,-1,-1,-1,-1,-1,-1,-1,-1,-1,-1,-1,-1,-1,-1,-1,-1,-1,-1,-1,-1,-1,-1,-1,-1,-1,-1,-1,-1,-1,-1,-1,-1,-1,-1,-1,-1,-1,-1,-1,-1,-1,-1,-1,-1,-1,-1],"loss_changes":[4.5751543E4,2.6036953E3,1.6011719E3,3.446255E2,6.1051416E2,3.9801758E2,3.205996E2,0E0,9.730957E1,1.0703125E2,2.2412598E2,2.1355762E2,4.809961E2,4.635547E2,1.4355981E2,1.1125E1,2.4257843E1,5.3135498E1,4.3247803E1,4.22041E1,4.2145657E1,1.2134155E1,8.508496E1,0E0,1.5691211E2,7.7240234E1,1.0185571E2,3.080884E0,5.90614E1,1.0887695E1,0E0,0E0,2.9734467E1,1.2855225E1,3.270215E1,6.0182373E1,0E0,6.086389E1,6.022464E1,1.4740242E1,9.016385E0,7.385254E-1,0E0,5.9592896E1,9.5302734E1,7.573633E1,1.3796387E0,2.2316406E1,0E0,1.2373291E1,5.3707123E0,0E0,0E0,0E0,0E0,9.44986E0,7.2368164E0,3.9867554E0,0E0,0E0,7.9246826E0,1.3257935E1,1.6455982E1,3.861798E1,6.714856E1,3.2527954E1,4.9653023E1,4.4889465E1,7.7746296E-1,0E0,1.3447067E1,2.5663824E0,5.963064E0,3.0664062E-1,0E0,0E0,7.1413574E0,1.5561523E2,4.192328E1,0E0,3.8356934E1,0E0,0E0,0E0,0E0,0E0,0E0,0E0,0E0,0E0,0E0,0E0,0E0,0E0,0E0,0E0,0E0,0E0,0E0,0E0,0E0,0E0,0E0,0E0,0E0,0E0,0E0,0E0,0E0,0E0,0E0,0E0,0E0,0E0,0E0,0E0,0E0,0E0,0E0,0E0,0E0,0E0,0E0,0E0,0E0,0E0,0E0,0E0,0E0],"parents":[2147483647,0,0,1,1,2,2,3,3,4,4,5,5,6,6,8,8,9,9,10,10,11,11,12,12,13,13,14,14,15,15,16,16,17,17,18,18,19,19,20,20,21,21,22,22,24,24,25,25,26,26,27,27,28,28,29,29,32,32,33,33,34,34,35,35,37,37,38,38,39,39,40,40,41,41,43,43,44,44,45,45,46,46,47,47,49,49,50,50,55,55,56,56,57,57,60,60,61,61,62,62,63,63,64,64,65,65,66,66,67,67,68,68,70,70,71,71,72,72,73,73,76,76,77,77,78,78,80,80],"right_children":[2,4,6,8,10,12,14,-1,16,18,20,22,24,26,28,30,32,34,36,38,40,42,44,-1,46,48,50,52,54,56,-1,-1,58,60,62,64,-1,66,68,70,72,74,-1,76,78,80,82,84,-1,86,88,-1,-1,-1,-1,90,92,94,-1,-1,96,98,100,102,104,106,108,110,112,-1,114,116,118,120,-1,-1,122,124,126,-1,128,-1,-1,-1,-1,-1,-1,-1,-1,-1,-1,-1,-1,-1,-1,-1,-1,-1,-1,-1,-1,-1,-1,-1,-1,-1,-1,-1,-1,-1,-1,-1,-1,-1,-1,-1,-1,-1,-1,-1,-1,-1,-1,-1,-1,-1,-1,-1,-1],"split_conditions":[3.4629E2,1.2399E2,4.7412143E2,5.7107E1,1.7815E2,1.6811874E1,5.0195532E2,-3.050435E0,9.957755E0,1.5492E2,2.1188E2,4.0256E2,3.9027E2,6.992762E-1,-2.209839E0,9.200012E0,1.0425857E2,-1.9000244E-1,7.9100037E0,1.082144E8,2.3496E2,1.0320007E1,-5.419998E0,6.1868563E0,4.6824E2,4.9319366E2,4.9609E2,1.8318509E0,1.1421968E1,-7.26001E0,-4.5276338E-1,-5.2502442E-2,1.8604334E-1,-1.8122424E0,6.546292E-1,-4.470001E0,-1.2876271E0,1.94713E2,-4.7000122E-1,-1.8657564E0,2.5152E2,2.84248E7,4.2532754E-1,4.1732E2,6.4400024E0,4.071E2,4.7573E2,1.53522E7,4.603948E0,7.3700104E0,-5.4100037E0,4.8513183E-1,2.6382446E-2,3.9413148E-1,2.489997E0,1.4185247E0,2.217073E8,1.3085467E0,-2.6066694E-1,-2.8258514E-1,-4.980011E0,1.2311943E2,1.5949049E0,1.4514697E-1,8.6250883E-1,6.0399933E0,8.38619E7,2.1251286E2,3.3182812E-1,-7.224223E-1,1.3349976E1,2.4484799E2,1.3149994E1,1.6534823E0,3.7019044E-1,1.0980277E0,1.2399994E1,-2.355799E0,5.350006E0,1.5440837E0,-1.0589996E1,1.774051E0,9.084997E-1,3.369314E0,1.3202759E0,1.1408794E0,2.913881E0,5.0998944E-1,1.4385728E0,-1.0578598E0,-1.5270615E-1,-4.9638748E-1,-1.8844473E0,-1.3237273E0,-3.3623505E-1,-6.582939E-1,-1.4505137E0,-1.4628755E-1,-1.0583766E0,-2.0369975E-1,-8.088989E-1,-1.2713264E0,-5.3883886E-1,-6.4878774E-1,-1.0205525E0,-6.484523E-1,-3.3262154E-1,5.3879805E-2,-5.0949687E-1,-1.3574549E0,-3.3025438E-1,-2.3933868E-1,-1.9847108E-2,-2.0313478E-1,-7.6059264E-1,2.8365174E-2,-1.6185533E-1,8.973796E-2,4.7150674E-1,1.4056509E0,7.978668E-1,2.0104444E0,5.265442E-1,1.3729482E0,2.4578736E0,7.4143577E-1,1.726969E0,7.5193787E-1,3.186632E0],"split_indices":[3,3,6,3,10,7,5,0,7,10,3,11,10,2,2,13,6,13,13,4,3,8,13,0,10,5,11,0,7,9,0,0,0,1,1,13,0,5,12,1,3,4,0,3,12,6,3,4,0,8,9,0,0,0,0,0,4,1,0,0,12,6,1,1,2,8,4,6,1,0,8,5,8,1,0,0,8,2,9,0,12,0,0,0,0,0,0,0,0,0,0,0,0,0,0,0,0,0,0,0,0,0,0,0,0,0,0,0,0,0,0,0,0,0,0,0,0,0,0,0,0,0,0,0,0,0,0,0,0],"split_type":[0,0,0,0,0,0,0,0,0,0,0,0,0,0,0,0,0,0,0,0,0,0,0,0,0,0,0,0,0,0,0,0,0,0,0,0,0,0,0,0,0,0,0,0,0,0,0,0,0,0,0,0,0,0,0,0,0,0,0,0,0,0,0,0,0,0,0,0,0,0,0,0,0,0,0,0,0,0,0,0,0,0,0,0,0,0,0,0,0,0,0,0,0,0,0,0,0,0,0,0,0,0,0,0,0,0,0,0,0,0,0,0,0,0,0,0,0,0,0,0,0,0,0,0,0,0,0,0,0],"sum_hessian":[8.28E2,6.04E2,2.24E2,8.8E1,5.16E2,1.55E2,6.9E1,1E1,7.8E1,2.51E2,2.65E2,1.22E2,3.3E1,5.5E1,1.4E1,6.5E1,1.3E1,8.4E1,1.67E2,2.04E2,6.1E1,2.4E1,9.8E1,1E0,3.2E1,3.8E1,1.7E1,2E0,1.2E1,6.4E1,1E0,1E0,1.2E1,3.3E1,5.1E1,1.57E2,1E1,1.88E2,1.6E1,4.2E1,1.9E1,2.2E1,2E0,2.5E1,7.3E1,2.1E1,1.1E1,2.1E1,1.7E1,1.2E1,5E0,1E0,1E0,1E0,1.1E1,3E0,6.1E1,1E1,2E0,1E0,3.2E1,4.3E1,8E0,2.4E1,1.33E2,1.64E2,2.4E1,1.2E1,4E0,2E0,4E1,1.2E1,7E0,2.1E1,1E0,1.4E1,1.1E1,5.9E1,1.4E1,5E0,1.6E1,7E0,4E0,1.9E1,2E0,2E0,1E1,2E0,3E0,2E0,1E0,1E0,6E1,9E0,1E0,3E0,2.9E1,1E0,4.2E1,5E0,3E0,1.8E1,6E0,1.04E2,2.9E1,1.46E2,1.8E1,1.1E1,1.3E1,9E0,3E0,3E0,1E0,3.9E1,1E0,9E0,3E0,5E0,2E0,1.6E1,5E0,1E1,1E0,1.1E1,4.8E1,5E0,9E0,1E0,1.5E1],"tree_param":{"num_deleted":"0","num_feature":"15","num_nodes":"129","size_leaf_vector":"1"}},{"base_weights":[7.475066E-2,-3.6132355E0,9.991004E0,-7.469186E0,-2.8622584E0,1.2341285E1,7.755229E0,-2.5055926E0,-6.751961E0,-3.5937307E0,-1.8156189E0,8.666083E-1,1.2938614E1,6.87875E0,9.292395E0,-7.6040406E0,-5.309957E0,-4.2762995E0,-3.1095479E0,-2.2175214E0,-4.7714233E-1,5.56817E0,1.25068655E1,7.4348736E0,4.58106E0,9.771363E0,2.5388336E0,-3.228344E0,-7.8020153E0,-2.512065E-1,-5.511481E0,-4.324107E0,-9.544881E-1,8.2460177E-1,-3.1737037E0,-2.066017E0,-3.5645316E0,-8.779915E-1,8.6537933E-1,1.1278457E1,1.629364E1,8.575885E0,5.840761E0,1.0272827E-1,5.0573845E0,1.0626082E1,5.3447456E0,-1.438202E-1,7.729024E-1,-7.692683E-1,-1.3743515E-1,-1.6021731E0,-6.7950517E-1,-3.823822E-1,-5.798152E0,-3.9836893E0,-5.057985E0,-3.9457703E-1,1.0823059E-1,-2.3442705E0,-3.5582654E0,-2.9538486E0,-1.8152643E0,-4.496303E0,-8.017273E-1,-1.6585121E0,-3.2106146E-1,4.9229738E-1,4.9650714E-1,1.2281701E1,8.66031E0,1.6153454E0,1.7670914E1,6.021301E-1,1.7659258E0,5.94562E0,2.9047242E-1,5.216921E0,2.6643372E-1,6.566747E0,1.2630606E1,1.2555376E0,-1.1858521E-1,-9.279197E-1,-1.3747133E0,-8.2596296E-1,-4.549276E-1,-5.794403E-1,-1.0661261E0,-5.329808E-1,-5.3374566E-2,-7.9036915E-1,-4.8256373E-1,-6.279468E-1,-3.4468587E-2,-4.2243204E-1,-2.3670267E-1,-1.4147347E0,-5.291161E-1,-6.461588E-3,-2.6078084E-1,-5.8963054E-1,-1.17982484E-1,-9.048309E-3,-2.7202576E-1,1.2014432E-1,3.672282E-3,1.9898022E0,2.7632442E0,1.6632895E-1,1.860981E0,3.9097226E0,1.775835E0,1.2222188E0,5.059286E-1,5.0248414E-1,1.1367356E0,1.4231434E0,5.2807618E-2,2.613807E0,4.7388917E-1],"categories":[],"categories_nodes":[],"categories_segments":[],"categories_sizes":[],"default_left":[0,0,0,0,0,0,0,0,0,0,0,0,0,0,0,0,0,0,0,0,0,0,0,0,0,0,0,0,0,0,0,0,0,0,0,0,0,0,0,0,0,0,0,0,0,0,0,0,0,0,0,0,0,0,0,0,0,0,0,0,0,0,0,0,0,0,0,0,0,0,0,0,0,0,0,0,0,0,0,0,0,0,0,0,0,0,0,0,0,0,0,0,0,0,0,0,0,0,0,0,0,0,0,0,0,0,0,0,0,0,0,0,0,0,0,0,0,0,0,0,0],"id":14,"left_children":[1,3,5,7,9,11,13,-1,15,17,19,-1,21,23,25,27,29,31,33,35,37,-1,39,41,43,45,47,49,51,-1,53,55,57,-1,59,61,63,65,67,69,71,73,75,-1,77,79,81,-1,-1,-1,-1,-1,-1,-1,83,85,87,-1,-1,89,91,93,95,97,99,101,103,-1,105,107,109,-1,111,-1,-1,113,-1,115,-1,117,119,-1,-1,-1,-1,-1,-1,-1,-1,-1,-1,-1,-1,-1,-1,-1,-1,-1,-1,-1,-1,-1,-1,-1,-1,-1,-1,-1,-1,-1,-1,-1,-1,-1,-1,-1,-1,-1,-1,-1,-1],"loss_changes":[3.035346E4,1.7305376E3,1.0865977E3,2.709829E2,3.8239355E2,4.605586E2,9.506055E1,0E0,6.774878E1,8.518799E1,1.12446655E2,0E0,2.9519922E2,6.688672E1,1.0458179E2,2.0724854E1,2.248816E1,1.5088623E1,9.5678955E1,2.5696228E1,2.7667229E1,0E0,2.7675195E2,6.268213E1,3.2275696E1,8.319653E1,2.0054869E1,3.638626E0,1.8776367E1,0E0,2.399878E1,9.57959E0,5.637102E0,0E0,4.8115967E1,2.7586609E1,3.5009735E1,1.6420633E1,5.842971E0,9.851465E1,1.0624951E2,2.1430176E1,4.7095337E0,0E0,2.559143E0,1.6116919E2,4.8038284E1,0E0,0E0,0E0,0E0,0E0,0E0,0E0,6.733032E0,1.2083496E1,4.586426E0,0E0,0E0,3.8587738E1,4.4113037E1,1.5487122E1,1.9632812E1,3.3755997E1,1.8897967E0,2.0310608E1,6.816756E0,0E0,5.370965E-1,5.583838E1,1.18419556E2,0E0,1.23572754E2,0E0,0E0,3.682251E-1,0E0,4.6553955E0,0E0,3.9641174E1,5.4510498E1,0E0,0E0,0E0,0E0,0E0,0E0,0E0,0E0,0E0,0E0,0E0,0E0,0E0,0E0,0E0,0E0,0E0,0E0,0E0,0E0,0E0,0E0,0E0,0E0,0E0,0E0,0E0,0E0,0E0,0E0,0E0,0E0,0E0,0E0,0E0,0E0,0E0,0E0,0E0,0E0],"parents":[2147483647,0,0,1,1,2,2,3,3,4,4,5,5,6,6,8,8,9,9,10,10,12,12,13,13,14,14,15,15,16,16,17,17,18,18,19,19,20,20,22,22,23,23,24,24,25,25,26,26,27,27,28,28,30,30,31,31,32,32,34,34,35,35,36,36,37,37,38,38,39,39,40,40,41,41,42,42,44,44,45,45,46,46,54,54,55,55,56,56,59,59,60,60,61,61,62,62,63,63,64,64,65,65,66,66,68,68,69,69,70,70,72,72,75,75,77,77,79,79,80,80],"right_children":[2,4,6,8,10,12,14,-1,16,18,20,-1,22,24,26,28,30,32,34,36,38,-1,40,42,44,46,48,50,52,-1,54,56,58,-1,60,62,64,66,68,70,72,74,76,-1,78,80,82,-1,-1,-1,-1,-1,-1,-1,84,86,88,-1,-1,90,92,94,96,98,100,102,104,-1,106,108,110,-1,112,-1,-1,114,-1,116,-1,118,120,-1,-1,-1,-1,-1,-1,-1,-1,-1,-1,-1,-1,-1,-1,-1,-1,-1,-1,-1,-1,-1,-1,-1,-1,-1,-1,-1,-1,-1,-1,-1,-1,-1,-1,-1,-1,-1,-1,-1,-1],"split_conditions":[3.4629E2,1.282E2,5E0,2.5955503E0,1.825E2,3.9387E2,4.2522E2,-2.5055926E0,7.8091583E0,1.69E2,2.1796E2,8.666083E-1,3.9758E2,4.1690833E2,1.9005586E0,-7.26001E0,2.217073E8,1.87001E2,1.5554857E2,1.098157E8,1.1350006E1,5.56817E0,5.0674E2,2.01601E7,-2.47601E0,1.4586301E0,1.934665E0,5.100366E-1,8.100006E0,-2.512065E-1,8.01096E0,8.887234E-1,-5.038447E-1,8.2460177E-1,4.3988247E0,3.47253E7,1.285194E8,-4.2692965E-1,-1.5912218E0,-4.830543E-3,4.90748E2,3.8277E2,4.1732E2,1.0272827E-1,1.2399994E1,-4.456677E-1,5.7471806E-1,-1.438202E-1,7.729024E-1,-7.692683E-1,-1.3743515E-1,-1.6021731E0,-6.7950517E-1,-3.823822E-1,4.95327E8,2.8400116E0,2.64462E7,-3.9457703E-1,1.0823059E-1,5.5599976E0,3.5911083E-1,2.2301397E0,1.9403E2,6.769989E0,1.97104E2,2.2924286E2,1.7299957E0,4.9229738E-1,2.671928E-1,-1.0213124E0,8.2637966E-2,1.6153454E0,5.0195532E2,6.021301E-1,1.7659258E0,4.13796E2,2.9047242E-1,7.6961703E0,2.6643372E-1,4.6199E2,1.1690002E1,1.2555376E0,-1.1858521E-1,-9.279197E-1,-1.3747133E0,-8.2596296E-1,-4.549276E-1,-5.794403E-1,-1.0661261E0,-5.329808E-1,-5.3374566E-2,-7.9036915E-1,-4.8256373E-1,-6.279468E-1,-3.4468587E-2,-4.2243204E-1,-2.3670267E-1,-1.4147347E0,-5.291161E-1,-6.461588E-3,-2.6078084E-1,-5.8963054E-1,-1.17982484E-1,-9.048309E-3,-2.7202576E-1,1.2014432E-1,3.672282E-3,1.9898022E0,2.7632442E0,1.6632895E-1,1.860981E0,3.9097226E0,1.775835E0,1.2222188E0,5.059286E-1,5.0248414E-1,1.1367356E0,1.4231434E0,5.2807618E-2,2.613807E0,4.7388917E-1],"split_indices":[3,3,14,7,3,3,3,0,7,10,3,0,3,5,0,9,4,5,6,4,8,0,10,4,2,1,0,0,13,0,7,0,0,0,7,4,4,0,1,1,5,3,3,0,8,1,0,0,0,0,0,0,0,0,4,9,4,0,0,8,1,0,11,8,5,6,9,0,1,1,1,0,5,0,0,5,0,7,0,11,8,0,0,0,0,0,0,0,0,0,0,0,0,0,0,0,0,0,0,0,0,0,0,0,0,0,0,0,0,0,0,0,0,0,0,0,0,0,0,0,0],"split_type":[0,0,0,0,0,0,0,0,0,0,0,0,0,0,0,0,0,0,0,0,0,0,0,0,0,0,0,0,0,0,0,0,0,0,0,0,0,0,0,0,0,0,0,0,0,0,0,0,0,0,0,0,0,0,0,0,0,0,0,0,0,0,0,0,0,0,0,0,0,0,0,0,0,0,0,0,0,0,0,0,0,0,0,0,0,0,0,0,0,0,0,0,0,0,0,0,0,0,0,0,0,0,0,0,0,0,0,0,0,0,0,0,0,0,0,0,0,0,0,0,0],"sum_hessian":[8.28E2,6.04E2,2.24E2,9.7E1,5.07E2,1.07E2,1.17E2,1E1,8.7E1,2.97E2,2.1E2,8E0,9.9E1,7.8E1,3.9E1,5.2E1,3.5E1,1.2E2,1.77E2,1.61E2,4.9E1,1E0,9.8E1,6.1E1,1.7E1,3.6E1,3E0,3E0,4.9E1,2E0,3.3E1,1.18E2,2E0,1E0,1.76E2,1.47E2,1.4E1,3.8E1,1.1E1,7.7E1,2.1E1,3.3E1,2.8E1,2E0,1.5E1,2.9E1,7E0,1E0,2E0,2E0,1E0,4.6E1,3E0,3E0,3E1,8.5E1,3.3E1,1E0,1E0,5.8E1,1.18E2,3E1,1.17E2,1E1,4E0,1.5E1,2.3E1,1E0,1E1,5.3E1,2.4E1,4E0,1.7E1,2E0,3.1E1,2.7E1,1E0,1.4E1,1E0,1.1E1,1.8E1,6E0,1E0,1.7E1,1.3E1,7.7E1,8E0,5E0,2.8E1,5E1,8E0,8.6E1,3.2E1,2.8E1,2E0,7.8E1,3.9E1,3E0,7E0,2E0,2E0,6E0,9E0,1.9E1,4E0,8E0,2E0,2.4E1,2.9E1,2E0,2.2E1,1.3E1,4E0,2.5E1,2E0,3E0,1.1E1,1E1,1E0,1.7E1,1E0],"tree_param":{"num_deleted":"0","num_feature":"15","num_nodes":"121","size_leaf_vector":"1"}},{"base_weights":[7.965258E-2,-2.8912232E0,8.215747E0,-6.0634127E0,-2.2772002E0,1.0276931E1,6.3120165E0,-2.2632136E0,-5.53501E0,-2.8892386E0,-1.4142814E0,9.667962E0,3.1396756E0,5.5839434E0,7.5921607E0,-6.211122E0,-4.3295293E0,-3.7896633E0,-2.6217825E0,-1.7072712E0,2.4445875E-1,7.779109E0,1.0803931E1,6.481215E0,4.5470734E0,7.9711633E0,2.1883469E0,-2.809349E0,-6.3506684E0,-4.591816E0,-1.78499E0,-2.7131083E0,-4.1368484E0,-4.43309E0,-2.4678009E0,-1.5557582E0,-2.6870449E0,-3.2779992E-1,1.418776E0,5.347756E0,8.882616E0,1.1572467E1,4.55402E0,3.450451E0,7.019545E0,5.2076745E0,3.0988932E0,8.6529875E0,4.417927E0,-1.2943725E-1,6.698507E-1,-6.666987E-1,-1.2369156E-1,-1.3001355E0,-5.775795E-1,-3.5487742E0,-5.843278E0,-2.3607998E0,5.1824953E-2,-3.4724858E0,-1.2349033E0,-2.0037434E0,-4.3382854E0,-1.0234528E0,-4.6517894E-1,-2.3650863E0,-4.176357E0,-1.8316782E0,-8.534046E-1,-1.1302643E0,-4.019905E0,-5.174591E-1,-1.0749123E-1,1.8815823E0,1.384697E-1,2.5499146E0,1.2266685E0,9.171009E0,1.6727905E-1,1.4767788E1,8.185227E0,2.2722595E0,1.2535431E0,8.756043E-1,8.903199E-2,3.621175E-1,7.2972007E0,5.311411E0,2.614258E-1,3.5062144E0,3.1660157E-1,5.3763833E0,1.0267001E1,1.040305E0,-1.0672607E-1,-1.0762838E-1,-7.7067846E-1,-4.9186823E-1,-1.322505E0,-1.3568269E-1,-5.390915E-1,-7.246968E-1,-1.8115082E-1,1.6038056E-1,-3.2808664E-1,-4.6659343E-2,-5.6612855E-1,-9.0245974E-1,-5.0263065E-1,-4.9318537E-1,-1.3410904E-1,-9.83017E-2,-8.9913815E-1,-2.8052294E-1,-5.122821E-1,5.6759495E-1,-1.9906943E-1,-4.902018E-1,-1.24202885E-1,-4.33137E-1,-1.4373848E0,-2.5444338E-1,4.4403076E-2,3.916626E-2,4.1888556E-1,-3.5506185E-2,1.0864716E-1,5.8860475E-1,9.77478E-2,1.8864893E0,2.8965148E-1,2.3214512E0,4.006603E0,2.054305E0,1.3532358E0,5.2886814E-1,7.8393556E-2,1.55929E0,8.9434206E-1,8.7302554E-1,1.3553246E0,3.8937867E-1,8.2382554E-1,1.1643876E0,4.7528077E-2,2.246171E0,1.064408E0],"categories":[],"categories_nodes":[],"categories_segments":[],"categories_sizes":[],"default_left":[0,0,0,0,0,0,0,0,0,0,0,0,0,0,0,0,0,0,0,0,0,0,0,0,0,0,0,0,0,0,0,0,0,0,0,0,0,0,0,0,0,0,0,0,0,0,0,0,0,0,0,0,0,0,0,0,0,0,0,0,0,0,0,0,0,0,0,0,0,0,0,0,0,0,0,0,0,0,0,0,0,0,0,0,0,0,0,0,0,0,0,0,0,0,0,0,0,0,0,0,0,0,0,0,0,0,0,0,0,0,0,0,0,0,0,0,0,0,0,0,0,0,0,0,0,0,0,0,0,0,0,0,0,0,0,0,0,0,0,0,0,0,0,0,0,0,0],"id":15,"left_children":[1,3,5,7,9,11,13,-1,15,17,19,21,-1,23,25,27,29,31,33,35,37,39,41,43,45,47,49,51,53,55,57,59,61,63,65,67,69,71,73,75,77,79,81,83,85,87,89,91,93,-1,-1,-1,-1,-1,-1,95,97,99,-1,101,103,105,107,-1,-1,109,111,113,115,117,119,-1,121,123,125,127,-1,129,-1,131,133,135,-1,-1,-1,-1,137,139,-1,141,-1,143,145,-1,-1,-1,-1,-1,-1,-1,-1,-1,-1,-1,-1,-1,-1,-1,-1,-1,-1,-1,-1,-1,-1,-1,-1,-1,-1,-1,-1,-1,-1,-1,-1,-1,-1,-1,-1,-1,-1,-1,-1,-1,-1,-1,-1,-1,-1,-1,-1,-1,-1,-1,-1,-1,-1],"loss_changes":[2.0061781E4,1.1704531E3,8.062461E2,2.0936621E2,2.6579297E2,1.9488672E2,6.7586426E1,0E0,4.7277588E1,6.1829834E1,1.04420105E2,1.2408594E2,0E0,4.4027588E1,6.447876E1,8.742432E0,1.5830017E1,1.3444702E1,5.4045654E1,2.283728E1,2.2641514E1,5.9818848E1,2.2588965E2,4.1041504E1,2.2128784E1,5.141089E1,1.5334747E1,2.5317516E0,8.757324E0,2.1033997E1,6.496848E0,1.7039627E1,1.1932068E1,1.2606506E1,2.8204712E1,2.9443787E1,4.3180786E1,1.1170979E1,6.257328E0,1.7329681E1,5.266162E1,4.3111182E2,1.7040054E1,2.0352043E1,3.4515503E1,3.5776367E0,3.7114258E0,1.0345532E2,3.381595E1,0E0,0E0,0E0,0E0,0E0,0E0,1.6268204E1,1.7577606E1,4.234619E-1,0E0,1.368866E0,7.923355E0,8.123505E0,2.3165894E0,0E0,0E0,3.3718506E1,1.0733994E1,3.210086E1,2.745105E1,6.548959E0,5.4903564E1,0E0,8.725717E0,2.4602852E0,6.0806644E-1,2.6129608E0,0E0,3.681494E1,0E0,1.8349463E2,1.0436035E1,2.461607E0,0E0,0E0,0E0,0E0,8.865845E0,5.081787E0,0E0,2.493515E0,0E0,2.6091553E1,3.078711E1,0E0,0E0,0E0,0E0,0E0,0E0,0E0,0E0,0E0,0E0,0E0,0E0,0E0,0E0,0E0,0E0,0E0,0E0,0E0,0E0,0E0,0E0,0E0,0E0,0E0,0E0,0E0,0E0,0E0,0E0,0E0,0E0,0E0,0E0,0E0,0E0,0E0,0E0,0E0,0E0,0E0,0E0,0E0,0E0,0E0,0E0,0E0,0E0,0E0,0E0,0E0,0E0,0E0,0E0],"parents":[2147483647,0,0,1,1,2,2,3,3,4,4,5,5,6,6,8,8,9,9,10,10,11,11,13,13,14,14,15,15,16,16,17,17,18,18,19,19,20,20,21,21,22,22,23,23,24,24,25,25,26,26,27,27,28,28,29,29,30,30,31,31,32,32,33,33,34,34,35,35,36,36,37,37,38,38,39,39,40,40,41,41,42,42,43,43,44,44,45,45,46,46,47,47,48,48,55,55,56,56,57,57,59,59,60,60,61,61,62,62,65,65,66,66,67,67,68,68,69,69,70,70,72,72,73,73,74,74,75,75,77,77,79,79,80,80,81,81,86,86,87,87,89,89,91,91,92,92],"right_children":[2,4,6,8,10,12,14,-1,16,18,20,22,-1,24,26,28,30,32,34,36,38,40,42,44,46,48,50,52,54,56,58,60,62,64,66,68,70,72,74,76,78,80,82,84,86,88,90,92,94,-1,-1,-1,-1,-1,-1,96,98,100,-1,102,104,106,108,-1,-1,110,112,114,116,118,120,-1,122,124,126,128,-1,130,-1,132,134,136,-1,-1,-1,-1,138,140,-1,142,-1,144,146,-1,-1,-1,-1,-1,-1,-1,-1,-1,-1,-1,-1,-1,-1,-1,-1,-1,-1,-1,-1,-1,-1,-1,-1,-1,-1,-1,-1,-1,-1,-1,-1,-1,-1,-1,-1,-1,-1,-1,-1,-1,-1,-1,-1,-1,-1,-1,-1,-1,-1,-1,-1,-1,-1],"split_conditions":[3.5452856E2,1.282E2,5E0,5.435E1,1.825E2,5.1983E2,4.2522E2,-2.2632136E0,7.8091583E0,1.4874133E2,2.2782E2,-2.0200043E0,3.1396756E0,2.01601E7,1.9005586E0,-7.26001E0,1.2662106E0,2.2430038E0,-7.9400024E0,1.046542E8,2.5152E2,4.8124966E2,4.95881E2,-2.6299896E0,-9.987094E-1,1.4586301E0,1.934665E0,5.100366E-1,8.100006E0,4.95327E8,-1.2267587E-2,-3.9863184E-2,1.2649E2,9.44538E0,8.699997E0,1.94713E2,-3E0,-1.8657564E0,2.3813461E1,2.1730015E1,-2.2899933E0,3.8700104E0,1.48358E7,6.1883974E-1,-1.1560192E0,4.2055E2,2.88438E7,-4.456677E-1,5.7471806E-1,-1.2943725E-1,6.698507E-1,-6.666987E-1,-1.2369156E-1,-1.3001355E0,-5.775795E-1,1.0425857E2,8.7757E1,-1.4502362E0,5.1824953E-2,1.5700073E0,-4.5520657E-1,3.337282E-2,1.5342E2,-1.0234528E0,-4.6517894E-1,9.46451E7,-1.5195957E0,1.8706534E2,1.8406E2,8.364197E0,2.17128E2,-5.174591E-1,-2.0536332E0,-2.4465063E0,9.4847634E-2,4.6756E2,1.2266685E0,1.3310028E1,1.6727905E-1,3.1669998E0,1.0460007E1,5.018E2,1.2535431E0,8.756043E-1,8.903199E-2,3.621175E-1,4.2174E2,3.619995E0,2.614258E-1,2.23405E7,3.1660157E-1,4.6199E2,4.3927234E2,1.040305E0,-1.0672607E-1,-1.0762838E-1,-7.7067846E-1,-4.9186823E-1,-1.322505E0,-1.3568269E-1,-5.390915E-1,-7.246968E-1,-1.8115082E-1,1.6038056E-1,-3.2808664E-1,-4.6659343E-2,-5.6612855E-1,-9.0245974E-1,-5.0263065E-1,-4.9318537E-1,-1.3410904E-1,-9.83017E-2,-8.9913815E-1,-2.8052294E-1,-5.122821E-1,5.6759495E-1,-1.9906943E-1,-4.902018E-1,-1.24202885E-1,-4.33137E-1,-1.4373848E0,-2.5444338E-1,4.4403076E-2,3.916626E-2,4.1888556E-1,-3.5506185E-2,1.0864716E-1,5.8860475E-1,9.77478E-2,1.8864893E0,2.8965148E-1,2.3214512E0,4.006603E0,2.054305E0,1.3532358E0,5.2886814E-1,7.8393556E-2,1.55929E0,8.9434206E-1,8.7302554E-1,1.3553246E0,3.8937867E-1,8.2382554E-1,1.1643876E0,4.7528077E-2,2.246171E0,1.064408E0],"split_indices":[6,3,14,3,3,3,3,0,7,5,3,12,0,4,0,9,1,8,13,4,3,5,5,12,2,1,0,0,13,4,0,1,6,7,13,5,13,1,7,7,12,9,4,1,0,3,4,1,0,0,0,0,0,0,0,6,10,0,0,12,0,0,11,0,0,4,0,5,10,7,5,0,2,2,1,3,0,13,0,12,8,3,0,0,0,0,6,13,0,4,0,11,5,0,0,0,0,0,0,0,0,0,0,0,0,0,0,0,0,0,0,0,0,0,0,0,0,0,0,0,0,0,0,0,0,0,0,0,0,0,0,0,0,0,0,0,0,0,0,0,0,0,0,0,0,0,0],"split_type":[0,0,0,0,0,0,0,0,0,0,0,0,0,0,0,0,0,0,0,0,0,0,0,0,0,0,0,0,0,0,0,0,0,0,0,0,0,0,0,0,0,0,0,0,0,0,0,0,0,0,0,0,0,0,0,0,0,0,0,0,0,0,0,0,0,0,0,0,0,0,0,0,0,0,0,0,0,0,0,0,0,0,0,0,0,0,0,0,0,0,0,0,0,0,0,0,0,0,0,0,0,0,0,0,0,0,0,0,0,0,0,0,0,0,0,0,0,0,0,0,0,0,0,0,0,0,0,0,0,0,0,0,0,0,0,0,0,0,0,0,0,0,0,0,0,0,0],"sum_hessian":[8.28E2,6.07E2,2.21E2,9.7E1,5.1E2,1.04E2,1.17E2,7E0,9E1,2.97E2,2.13E2,9.6E1,8E0,7.8E1,3.9E1,5.5E1,3.5E1,6.5E1,2.32E2,1.81E2,3.2E1,3.9E1,5.7E1,3.9E1,3.9E1,3.6E1,3E0,3E0,5.2E1,3.1E1,4E0,1.8E1,4.7E1,1.6E1,2.16E2,1.59E2,2.2E1,2.2E1,1E1,1.4E1,2.5E1,5E1,7E0,7E0,3.2E1,2.5E1,1.4E1,2.9E1,7E0,1E0,2E0,2E0,1E0,4.9E1,3E0,1.9E1,1.2E1,3E0,1E0,1.1E1,7E0,5E0,4.2E1,1.1E1,5E0,2.06E2,1E1,1.13E2,4.6E1,1.1E1,1.1E1,1E0,2.1E1,7E0,3E0,4E0,1E1,2.4E1,1E0,2.4E1,2.6E1,4E0,3E0,5E0,2E0,2E0,3E1,2.4E1,1E0,1E1,4E0,1.1E1,1.8E1,6E0,1E0,2E0,1.7E1,3E0,9E0,1E0,2E0,1E1,1E0,1E0,6E0,2E0,3E0,3.7E1,5E0,1.94E2,1.2E1,1E0,9E0,7.3E1,4E1,1E0,4.5E1,2E0,9E0,8E0,3E0,4E0,1.7E1,1E0,6E0,2E0,1E0,3E0,1E0,2.3E1,1E0,1.7E1,7E0,8E0,1.8E1,3E0,1E0,2.4E1,6E0,1.7E1,7E0,4E0,6E0,1E1,1E0,1.4E1,4E0],"tree_param":{"num_deleted":"0","num_feature":"15","num_nodes":"147","size_leaf_vector":"1"}},{"base_weights":[8.20942E-2,-2.3418617E0,6.720307E0,-4.709028E0,-1.7919652E0,8.402453E0,5.1665297E0,-1.8671511E0,-4.3190947E0,-2.1035676E0,-7.321052E-1,5.767918E-1,8.707776E0,3.2314806E0,5.482524E0,-5.559143E0,-3.9133773E0,-2.5996861E0,-1.738175E0,-9.276377E-1,1.1831207E0,4.6106935E0,8.326152E0,3.3822005E0,5.1852416E-2,5.603329E0,4.1331178E-1,-5.6885853E0,-2.5819704E-1,-4.3984694E0,-3.0304027E0,-2.6794007E0,4.073456E-1,-9.752462E-1,-2.0066967E0,5.7057625E-1,-1.0251873E0,1.8050461E0,3.6400858E-1,7.3029566E0,1.0623322E1,2.6882215E0,9.297803E-1,5.867913E0,3.7833822E0,-5.8079085E0,-3.0634767E-1,-1.4126587E-1,-4.4570146E0,-3.437489E0,-1.3285713E0,-4.0061517E0,-2.4773161E0,-1.8563233E-1,3.214142E-1,9.353858E-1,-1.2871778E0,-3.1468682E0,-1.8355924E0,-2.8031412E-1,1.9339906E-1,-7.3262066E-1,-1.767395E0,3.524933E-2,4.1911134E-1,-3.077189E-2,1.322815E-1,7.4993362E0,2.1387634E0,1.3434039E0,1.2120148E1,5.8404696E-1,1.72819E-1,6.428087E0,4.3335915E0,4.023069E0,4.277649E-2,-1.1868014E0,-3.159836E-1,-6.103419E-1,-9.534362E-1,-4.7669697E-1,-1.0327109E0,-1.5419007E-3,-4.2390928E-1,-9.35544E-1,-2.3804322E-1,-5.3406763E-1,-2.5494966E-1,-7.720566E-2,3.3208618E-1,-1.5760337E-1,-4.9318138E-1,-2.6728413E-1,-8.484929E-1,-3.9302823E-1,-7.380207E-2,-1.0189972E-1,1.7805481E-2,-8.7339655E-2,-3.482111E-1,-7.832428E-1,-1.6389954E-1,1.3647645E0,2.1469874E0,-1.8153687E-1,6.913615E-1,1.2727203E0,2.7443027E0,3.5230306E-1,1.312659E0,1.079215E0,3.690335E-1,8.7722677E-1,2.4595745E-1],"categories":[],"categories_nodes":[],"categories_segments":[],"categories_sizes":[],"default_left":[0,0,0,0,0,0,0,0,0,0,0,0,0,0,0,0,0,0,0,0,0,0,0,0,0,0,0,0,0,0,0,0,0,0,0,0,0,0,0,0,0,0,0,0,0,0,0,0,0,0,0,0,0,0,0,0,0,0,0,0,0,0,0,0,0,0,0,0,0,0,0,0,0,0,0,0,0,0,0,0,0,0,0,0,0,0,0,0,0,0,0,0,0,0,0,0,0,0,0,0,0,0,0,0,0,0,0,0,0,0,0,0,0,0,0],"id":16,"left_children":[1,3,5,7,9,11,13,-1,15,17,19,-1,21,23,25,27,29,31,33,35,37,-1,39,41,-1,43,-1,45,-1,47,49,51,53,55,57,59,61,63,65,67,69,71,-1,73,75,77,-1,-1,79,81,83,85,87,-1,-1,89,91,93,95,97,-1,99,101,-1,-1,-1,-1,103,105,-1,107,-1,-1,109,111,113,-1,-1,-1,-1,-1,-1,-1,-1,-1,-1,-1,-1,-1,-1,-1,-1,-1,-1,-1,-1,-1,-1,-1,-1,-1,-1,-1,-1,-1,-1,-1,-1,-1,-1,-1,-1,-1,-1,-1],"loss_changes":[1.3354958E4,7.829929E2,5.368262E2,1.6534692E2,1.6193604E2,1.518042E2,5.443628E1,0E0,3.207776E1,6.472937E1,4.3789246E1,0E0,3.5004492E2,7.634598E0,2.9687012E1,5.9157104E0,2.2650024E1,3.9444214E1,4.3727356E1,1.5784554E1,4.946641E0,0E0,1.527627E2,3.3258667E0,0E0,2.4026123E1,0E0,2.511963E0,0E0,8.092102E0,1.8295227E1,3.1901611E1,9.502831E0,3.6963196E1,2.6218079E1,2.6322262E0,1.9985405E1,2.4697666E0,1.0258441E0,5.59646E1,8.23064E1,3.4017487E0,0E0,4.2621338E1,1.1972992E1,2.354004E0,0E0,0E0,7.6818237E0,3.499405E1,8.341811E0,3.0363281E1,2.8628845E1,0E0,0E0,9.263737E0,2.8652344E1,3.4000687E1,2.6824005E1,2.9930133E-1,0E0,2.0725815E1,5.178588E1,0E0,0E0,0E0,0E0,7.537378E1,1.9199102E1,0E0,8.783057E1,0E0,0E0,2.5034424E1,5.6141144E1,8.80397E0,0E0,0E0,0E0,0E0,0E0,0E0,0E0,0E0,0E0,0E0,0E0,0E0,0E0,0E0,0E0,0E0,0E0,0E0,0E0,0E0,0E0,0E0,0E0,0E0,0E0,0E0,0E0,0E0,0E0,0E0,0E0,0E0,0E0,0E0,0E0,0E0,0E0,0E0,0E0],"parents":[2147483647,0,0,1,1,2,2,3,3,4,4,5,5,6,6,8,8,9,9,10,10,12,12,13,13,14,14,15,15,16,16,17,17,18,18,19,19,20,20,22,22,23,23,25,25,27,27,29,29,30,30,31,31,32,32,33,33,34,34,35,35,36,36,37,37,38,38,39,39,40,40,41,41,43,43,44,44,45,45,48,48,49,49,50,50,51,51,52,52,55,55,56,56,57,57,58,58,59,59,61,61,62,62,67,67,68,68,70,70,73,73,74,74,75,75],"right_children":[2,4,6,8,10,12,14,-1,16,18,20,-1,22,24,26,28,30,32,34,36,38,-1,40,42,-1,44,-1,46,-1,48,50,52,54,56,58,60,62,64,66,68,70,72,-1,74,76,78,-1,-1,80,82,84,86,88,-1,-1,90,92,94,96,98,-1,100,102,-1,-1,-1,-1,104,106,-1,108,-1,-1,110,112,114,-1,-1,-1,-1,-1,-1,-1,-1,-1,-1,-1,-1,-1,-1,-1,-1,-1,-1,-1,-1,-1,-1,-1,-1,-1,-1,-1,-1,-1,-1,-1,-1,-1,-1,-1,-1,-1,-1,-1],"split_conditions":[3.5832E2,1.3732E2,5E0,5.435E1,1.9312E2,3.9651E2,4.0256E2,-1.8671511E0,8.4517715E1,1.7353287E2,2.5152E2,5.767918E-1,3.9027E2,1.0320007E1,1.3349976E1,8.8008E1,9.300232E-1,1.2444964E1,4.0347247E0,1.8405766E2,6.7100067E0,4.6106935E0,5.041E2,6.1200256E0,5.1852416E-2,6.4400024E0,4.1331178E-1,5.130005E0,-2.5819704E-1,-1.2140015E1,1.0168388E1,-4.350006E0,6.82822E-1,1.7534E2,-4.6900024E0,5.06104E7,1.7570038E0,-8.481844E-1,4.01001E0,5.0998145E2,1.4870891E1,4.2699966E0,9.297803E-1,1.2727562E0,4.5958142E2,1.9222001E0,-3.0634767E-1,-1.4126587E-1,2.442E8,3.4299927E0,4.119995E0,8.364197E0,7.37112E7,-1.8563233E-1,3.214142E-1,1.73544E2,-1.0510235E0,-3.323932E-1,1.9158133E2,1.673952E0,1.9339906E-1,1.046542E8,3.449997E0,3.524933E-2,4.1911134E-1,-3.077189E-2,1.322815E-1,2.011503E0,-2.209839E0,1.3434039E0,5.0468E2,5.8404696E-1,1.72819E-1,-9.1297525E-1,4.13796E2,2.42858E7,4.277649E-2,-1.1868014E0,-3.159836E-1,-6.103419E-1,-9.534362E-1,-4.7669697E-1,-1.0327109E0,-1.5419007E-3,-4.2390928E-1,-9.35544E-1,-2.3804322E-1,-5.3406763E-1,-2.5494966E-1,-7.720566E-2,3.3208618E-1,-1.5760337E-1,-4.9318138E-1,-2.6728413E-1,-8.484929E-1,-3.9302823E-1,-7.380207E-2,-1.0189972E-1,1.7805481E-2,-8.7339655E-2,-3.482111E-1,-7.832428E-1,-1.6389954E-1,1.3647645E0,2.1469874E0,-1.8153687E-1,6.913615E-1,1.2727203E0,2.7443027E0,3.5230306E-1,1.312659E0,1.079215E0,3.690335E-1,8.7722677E-1,2.4595745E-1],"split_indices":[11,5,14,3,3,11,11,0,6,6,3,0,10,8,8,3,12,7,7,5,13,0,10,8,0,12,0,12,0,13,7,13,1,10,12,4,9,0,12,6,7,12,0,0,6,1,0,0,4,12,13,7,4,0,0,5,2,1,5,0,0,4,9,0,0,0,0,0,2,0,11,0,0,0,5,4,0,0,0,0,0,0,0,0,0,0,0,0,0,0,0,0,0,0,0,0,0,0,0,0,0,0,0,0,0,0,0,0,0,0,0,0,0,0,0],"split_type":[0,0,0,0,0,0,0,0,0,0,0,0,0,0,0,0,0,0,0,0,0,0,0,0,0,0,0,0,0,0,0,0,0,0,0,0,0,0,0,0,0,0,0,0,0,0,0,0,0,0,0,0,0,0,0,0,0,0,0,0,0,0,0,0,0,0,0,0,0,0,0,0,0,0,0,0,0,0,0,0,0,0,0,0,0,0,0,0,0,0,0,0,0,0,0,0,0,0,0,0,0,0,0,0,0,0,0,0,0,0,0,0,0,0,0],"sum_hessian":[8.28E2,6.07E2,2.21E2,1.13E2,4.94E2,1.04E2,1.17E2,7E0,1.06E2,3.81E2,1.13E2,6E0,9.8E1,1.8E1,9.9E1,2.3E1,8.3E1,1.59E2,2.22E2,1.03E2,1E1,1E0,9.7E1,1.7E1,1E0,9.5E1,4E0,2.2E1,1E0,5.1E1,3.2E1,1.55E2,4E0,5.9E1,1.63E2,6E0,9.7E1,5E0,5E0,7E1,2.7E1,1.3E1,4E0,8.1E1,1.4E1,2.1E1,1E0,1E0,5E1,2.5E1,7E0,1.8E1,1.37E2,2E0,2E0,8E0,5.1E1,1.9E1,1.44E2,2E0,4E0,7.1E1,2.6E1,1E0,4E0,2E0,3E0,6.7E1,3E0,9E0,1.8E1,1.1E1,2E0,5.7E1,2.4E1,1.3E1,1E0,2E1,1E0,1.1E1,3.9E1,1.7E1,8E0,3E0,4E0,1.4E1,4E0,1.17E2,2E1,3E0,5E0,3.7E1,1.4E1,8E0,1.1E1,1.32E2,1.2E1,1E0,1E0,5.6E1,1.5E1,7E0,1.9E1,5.8E1,9E0,1E0,2E0,5E0,1.3E1,2E0,5.5E1,1.6E1,8E0,1.1E1,2E0],"tree_param":{"num_deleted":"0","num_feature":"15","num_nodes":"115","size_leaf_vector":"1"}},{"base_weights":[7.641455E-2,-1.8936425E0,5.471542E0,-3.8336644E0,-1.443024E0,4.6586666E0,7.7428718E0,-1.5403999E0,-3.5086145E0,-1.632016E0,-2.5255197E-1,3.471306E0,5.1262674E0,5.843939E0,9.939749E0,-4.5334554E0,-3.1740336E0,-2.0911632E0,-1.3518085E0,-5.550482E-1,7.053806E-1,4.0881085E0,1.5932356E0,4.149846E0,6.1515093E0,3.8892148E0,6.9200487E0,1.2016038E1,6.204831E0,-4.8478594E0,-4.7382966E-1,-3.5515647E0,-2.4829533E0,-2.1560981E0,3.530365E-1,-1.2679572E0,-2.899049E0,-3.9035308E-1,-2.4749756E0,1.0383819E0,2.0095634E-1,4.5833077E0,2.0382318E0,2.2151031E0,3.0853271E-2,4.585063E0,1.6756343E0,4.149625E0,5.496977E0,4.768527E0,4.9880219E-1,7.834013E0,3.4817963E0,7.3854485E0,3.0289247E0,3.777054E-1,7.5873795E0,-4.957898E0,-2.7571258E-1,-3.2174954E0,-1.047902E0,-1.287099E0,-2.9469292E0,-1.8167567E0,-2.7634325E0,-1.6088054E-1,2.785594E-1,-1.3774506E0,-3.971924E-1,-3.9155076E0,3.6685944E-1,-4.7760722E-1,-2.5736555E-1,-3.88031E-2,-6.3412476E-1,9.579468E-2,1.428663E0,-7.8063965E-2,4.631017E-1,2.5840607E0,5.353766E0,2.6631837E0,2.0112672E-1,2.4794502E0,1.5436198E-1,-5.956828E-1,1.2942098E-1,1.8532104E0,5.029543E0,-2.695394E-1,2.4972296E0,4.795381E0,9.522639E0,6.947632E-2,5.1759033E0,-4.9769083E-1,3.4882814E-1,1.9589669E0,4.89394E0,8.932886E-1,-1.4414369E-1,3.9316406E0,2.3662498E0,6.387207E-1,1.7039407E0,-1.015069E0,-2.8438494E-1,-6.54067E-1,-8.397217E-2,-1.9435627E-2,-4.5250067E-1,-6.416154E-1,-2.73173E-2,-4.5887098E-1,-1.6465978E-1,-5.7091653E-1,2.0675202E-1,-2.380039E-1,-4.6155444E-1,2.2136346E-1,-1.8061139E-1,-4.3673968E-1,-1.1934594E0,-2.4194336E-2,1.1395874E-1,-3.4183504E-3,-2.593306E-1,-2.2444153E-2,4.0508017E-2,3.172455E-2,3.2277986E-1,1.1398865E-1,-7.1105957E-3,2.0789337E-1,6.1950684E-1,4.25766E-1,1.1595294E0,6.012085E-1,1.2917481E-1,8.824463E-2,5.4151875E-1,-2.5308227E-2,-1.533966E-1,4.6586815E-1,1.3514252E-1,1.0845232E0,3.1416017E-1,6.3631696E-1,1.6927795E-1,1.2594348E0,7.368799E-1,1.1090698E-1,2.1849802E0,2.751343E-1,1.0890598E0,1.4074707E-2,-1.6338196E-1,3.1572267E-1,1.1471894E0,-4.850464E-2,9.6299565E-1],"categories":[],"categories_nodes":[],"categories_segments":[],"categories_sizes":[],"default_left":[0,0,0,0,0,0,0,0,0,0,0,0,0,0,0,0,0,0,0,0,0,0,0,0,0,0,0,0,0,0,0,0,0,0,0,0,0,0,0,0,0,0,0,0,0,0,0,0,0,0,0,0,0,0,0,0,0,0,0,0,0,0,0,0,0,0,0,0,0,0,0,0,0,0,0,0,0,0,0,0,0,0,0,0,0,0,0,0,0,0,0,0,0,0,0,0,0,0,0,0,0,0,0,0,0,0,0,0,0,0,0,0,0,0,0,0,0,0,0,0,0,0,0,0,0,0,0,0,0,0,0,0,0,0,0,0,0,0,0,0,0,0,0,0,0,0,0,0,0,0,0,0,0,0,0,0,0,0,0,0,0],"id":17,"left_children":[1,3,5,7,9,11,13,-1,15,17,19,21,23,25,27,29,31,33,35,37,39,41,43,45,47,49,51,53,55,57,-1,59,61,63,65,67,69,71,73,75,77,79,81,83,85,87,89,-1,91,93,95,97,99,101,-1,-1,103,105,-1,107,-1,109,111,113,115,-1,-1,117,119,121,123,-1,125,-1,-1,127,129,-1,131,133,135,137,-1,139,-1,141,-1,143,145,-1,147,149,151,-1,153,155,-1,-1,157,-1,-1,159,-1,-1,-1,-1,-1,-1,-1,-1,-1,-1,-1,-1,-1,-1,-1,-1,-1,-1,-1,-1,-1,-1,-1,-1,-1,-1,-1,-1,-1,-1,-1,-1,-1,-1,-1,-1,-1,-1,-1,-1,-1,-1,-1,-1,-1,-1,-1,-1,-1,-1,-1,-1,-1,-1,-1,-1,-1,-1,-1],"loss_changes":[8.821562E3,5.259873E2,3.7380908E2,1.16320435E2,1.1095764E2,7.437036E1,1.7970068E2,0E0,2.2300049E1,5.2109497E1,2.038572E1,5.1406555E1,9.1596924E1,4.250183E1,1.1931201E2,4.845886E0,1.3097595E1,2.6155334E1,3.1093933E1,1.5792629E1,2.6468878E0,2.8216797E1,1.3533985E1,6.015674E1,4.1141553E2,3.9358673E1,3.5572388E1,1.0545801E2,5.1313538E1,8.003235E-1,0E0,1.2464172E1,1.4516998E1,2.7130127E1,7.137667E0,2.3860657E1,4.4592033E1,1.2668751E1,5.7318344E0,3.5418825E0,1.4207602E0,3.0835327E1,3.1297302E0,1.9016418E0,2.3159888E0,5.503479E1,3.0689014E1,0E0,1.0685242E2,1.8013748E1,5.8319273E0,3.8539E1,2.8046997E1,7.632327E1,0E0,0E0,5.562866E0,6.737671E-1,0E0,5.4269104E0,0E0,1.2547327E1,1.6441864E1,4.698181E1,2.1641144E1,0E0,0E0,3.6835968E1,2.3824276E1,2.2502289E1,4.649195E-1,0E0,1.1964087E1,0E0,0E0,1.1154798E-1,1.3908014E0,0E0,3.399253E-1,4.711296E0,1.6287598E1,1.5167351E0,0E0,2.5254135E0,0E0,1.4403737E-1,0E0,3.4718208E0,5.2661377E1,0E0,7.474987E0,5.6884888E1,8.197119E1,0E0,2.746704E0,6.0149956E-1,0E0,0E0,1.3277359E1,0E0,0E0,2.3290916E1,0E0,0E0,0E0,0E0,0E0,0E0,0E0,0E0,0E0,0E0,0E0,0E0,0E0,0E0,0E0,0E0,0E0,0E0,0E0,0E0,0E0,0E0,0E0,0E0,0E0,0E0,0E0,0E0,0E0,0E0,0E0,0E0,0E0,0E0,0E0,0E0,0E0,0E0,0E0,0E0,0E0,0E0,0E0,0E0,0E0,0E0,0E0,0E0,0E0,0E0,0E0,0E0,0E0,0E0,0E0,0E0,0E0,0E0,0E0],"parents":[2147483647,0,0,1,1,2,2,3,3,4,4,5,5,6,6,8,8,9,9,10,10,11,11,12,12,13,13,14,14,15,15,16,16,17,17,18,18,19,19,20,20,21,21,22,22,23,23,24,24,25,25,26,26,27,27,28,28,29,29,31,31,32,32,33,33,34,34,35,35,36,36,37,37,38,38,39,39,40,40,41,41,42,42,43,43,44,44,45,45,46,46,48,48,49,49,50,50,51,51,52,52,53,53,56,56,57,57,59,59,61,61,62,62,63,63,64,64,67,67,68,68,69,69,70,70,72,72,75,75,76,76,78,78,79,79,80,80,81,81,83,83,85,85,87,87,88,88,90,90,91,91,92,92,94,94,95,95,98,98,101,101],"right_children":[2,4,6,8,10,12,14,-1,16,18,20,22,24,26,28,30,32,34,36,38,40,42,44,46,48,50,52,54,56,58,-1,60,62,64,66,68,70,72,74,76,78,80,82,84,86,88,90,-1,92,94,96,98,100,102,-1,-1,104,106,-1,108,-1,110,112,114,116,-1,-1,118,120,122,124,-1,126,-1,-1,128,130,-1,132,134,136,138,-1,140,-1,142,-1,144,146,-1,148,150,152,-1,154,156,-1,-1,158,-1,-1,160,-1,-1,-1,-1,-1,-1,-1,-1,-1,-1,-1,-1,-1,-1,-1,-1,-1,-1,-1,-1,-1,-1,-1,-1,-1,-1,-1,-1,-1,-1,-1,-1,-1,-1,-1,-1,-1,-1,-1,-1,-1,-1,-1,-1,-1,-1,-1,-1,-1,-1,-1,-1,-1,-1,-1,-1,-1,-1,-1],"split_conditions":[3.5452856E2,1.3732E2,4.8301855E2,5.435E1,2.0968E2,9.679057E0,1.6716288E1,-1.5403999E0,8.4517715E1,1.7353287E2,2.4103E2,4.1690833E2,8.0000305E-1,-7.8799896E0,3.699997E0,7.235199E0,9.300232E-1,1.2444964E1,1.136199E8,1.2679993E1,2.3813461E1,-6.14237E-2,1.4081783E0,5.5999756E-1,8.600006E-1,-1.0309998E1,6.0599976E0,-3.6699982E0,1.12369E7,5.130005E0,-4.7382966E-1,6.199951E-1,3.093204E8,1.70588E2,6.82822E-1,7.099991E0,1.1289993E1,-1.8657564E0,3.7409055E-1,2.5152E2,1.0149994E1,-5.102122E-2,-5E-1,-4.5328486E-1,1.59525E7,4.0906E2,7.9000854E-1,4.149625E0,4.85422E2,4.4158E2,2.3008566E0,5.041E2,1.1679002E0,1.0160004E1,3.0289247E0,3.777054E-1,1.5735266E-1,1.9222001E0,-2.7571258E-1,6.78364E8,-1.047902E0,3.449997E0,1.0843015E-1,1.5687E2,1.263325E8,-1.6088054E-1,2.785594E-1,5.5899963E0,4.01485E0,-1.8500061E0,-1.0506666E0,-4.7760722E-1,8.123485E-1,-3.88031E-2,-6.3412476E-1,-9.8596394E-1,-2.4465063E0,-7.8063965E-2,1.6563101E0,4.2100067E0,-2.899994E0,2.2457E7,2.0112672E-1,4.0455142E2,1.5436198E-1,1.6188552E0,1.2942098E-1,4.0455142E2,3.02765E7,-2.695394E-1,4.3711E2,1.1468313E1,-1.7365208E0,6.947632E-2,4.6568E2,-5.562016E-1,3.4882814E-1,1.9589669E0,7.258429E-1,8.932886E-1,-1.4414369E-1,-1.1870531E0,2.3662498E0,6.387207E-1,1.7039407E0,-1.015069E0,-2.8438494E-1,-6.54067E-1,-8.397217E-2,-1.9435627E-2,-4.5250067E-1,-6.416154E-1,-2.73173E-2,-4.5887098E-1,-1.6465978E-1,-5.7091653E-1,2.0675202E-1,-2.380039E-1,-4.6155444E-1,2.2136346E-1,-1.8061139E-1,-4.3673968E-1,-1.1934594E0,-2.4194336E-2,1.1395874E-1,-3.4183504E-3,-2.593306E-1,-2.2444153E-2,4.0508017E-2,3.172455E-2,3.2277986E-1,1.1398865E-1,-7.1105957E-3,2.0789337E-1,6.1950684E-1,4.25766E-1,1.1595294E0,6.012085E-1,1.2917481E-1,8.824463E-2,5.4151875E-1,-2.5308227E-2,-1.533966E-1,4.6586815E-1,1.3514252E-1,1.0845232E0,3.1416017E-1,6.3631696E-1,1.6927795E-1,1.2594348E0,7.368799E-1,1.1090698E-1,2.1849802E0,2.751343E-1,1.0890598E0,1.4074707E-2,-1.6338196E-1,3.1572267E-1,1.1471894E0,-4.850464E-2,9.6299565E-1],"split_indices":[6,5,6,3,11,7,7,0,6,6,3,5,9,13,9,7,12,7,4,8,7,2,0,12,9,13,12,12,4,12,0,12,4,5,1,8,9,1,0,10,8,0,12,2,4,3,12,0,5,3,0,11,0,13,0,0,0,1,0,4,0,13,2,11,4,0,0,8,7,13,1,0,1,0,0,0,2,0,0,8,12,4,0,6,0,0,0,6,4,0,3,7,1,0,10,0,0,0,0,0,0,1,0,0,0,0,0,0,0,0,0,0,0,0,0,0,0,0,0,0,0,0,0,0,0,0,0,0,0,0,0,0,0,0,0,0,0,0,0,0,0,0,0,0,0,0,0,0,0,0,0,0,0,0,0,0,0,0,0,0,0],"split_type":[0,0,0,0,0,0,0,0,0,0,0,0,0,0,0,0,0,0,0,0,0,0,0,0,0,0,0,0,0,0,0,0,0,0,0,0,0,0,0,0,0,0,0,0,0,0,0,0,0,0,0,0,0,0,0,0,0,0,0,0,0,0,0,0,0,0,0,0,0,0,0,0,0,0,0,0,0,0,0,0,0,0,0,0,0,0,0,0,0,0,0,0,0,0,0,0,0,0,0,0,0,0,0,0,0,0,0,0,0,0,0,0,0,0,0,0,0,0,0,0,0,0,0,0,0,0,0,0,0,0,0,0,0,0,0,0,0,0,0,0,0,0,0,0,0,0,0,0,0,0,0,0,0,0,0,0,0,0,0,0,0],"sum_hessian":[8.28E2,6.07E2,2.21E2,1.13E2,4.94E2,1.65E2,5.6E1,7E0,1.06E2,4.26E2,6.8E1,4.9E1,1.16E2,3.2E1,2.4E1,2.3E1,8.3E1,1.59E2,2.67E2,5.2E1,1.6E1,3.6E1,1.3E1,6.2E1,5.4E1,1.3E1,1.9E1,1.4E1,1E1,1.9E1,4E0,5.1E1,3.2E1,1.55E2,4E0,2.55E2,1.2E1,4.9E1,3E0,9E0,7E0,2.8E1,8E0,9E0,4E0,5.2E1,1E1,1E0,5.3E1,1E1,3E0,1.4E1,5E0,7E0,7E0,3E0,7E0,1.8E1,1E0,4.5E1,6E0,1E1,2.2E1,1.02E2,5.3E1,2E0,2E0,2.26E2,2.9E1,9E0,3E0,2E0,4.7E1,1E0,2E0,3E0,6E0,2E0,5E0,9E0,1.9E1,4E0,4E0,7E0,2E0,2E0,2E0,8E0,4.4E1,2E0,8E0,4.7E1,6E0,1E0,9E0,2E0,1E0,7E0,7E0,4E0,1E0,5E0,2E0,2E0,5E0,1.7E1,1E0,4.4E1,1E0,5E0,5E0,2E1,2E0,6.8E1,3.4E1,5.2E1,1E0,1.9E2,3.6E1,7E0,2.2E1,6E0,3E0,1E0,2E0,3.9E1,8E0,1E0,2E0,1E0,5E0,4E0,1E0,3E0,6E0,3E0,1.6E1,3E0,1E0,1E0,6E0,1E0,1E0,5E0,3E0,3.9E1,5E0,5E0,3E0,1.8E1,2.9E1,1E0,5E0,1E0,8E0,1E0,1E0,2E0,5E0,1E0,4E0],"tree_param":{"num_deleted":"0","num_feature":"15","num_nodes":"161","size_leaf_vector":"1"}},{"base_weights":[8.440637E-2,-1.5325524E0,4.5124536E0,-3.4765816E0,-1.2271577E0,3.8184066E0,6.4545474E0,-6.3541484E0,-3.1232867E0,-1.6231719E0,-7.682019E-1,3.368734E0,4.7663207E0,4.851038E0,8.312998E0,-1.3491597E0,-3.6125985E-1,4.9427796E-2,-3.1721728E0,-2.529344E0,-1.4585146E0,-9.0189433E-1,3.4959581E-1,2.9727995E0,4.9253263E0,3.7346618E0,4.114715E0,3.2280338E0,5.7445893E0,1.0033474E1,5.211168E0,-3.3602057E0,-1.9206524E0,-3.3148484E0,-1.5859898E0,-1.266889E0,-2.0835235E0,-1.5864501E0,-7.266268E-1,2.765431E-2,8.153603E-1,3.2991238E0,1.8078228E0,6.257383E0,2.3059795E0,2.8098989E0,5.307135E0,3.94516E0,4.4892883E-1,6.495335E0,2.9102936E0,5.356781E0,1.1836142E1,3.21048E-1,6.3627357E0,-3.080801E0,-9.792027E-1,4.3001938E-1,-2.7519896E0,-1.6110764E0,-3.7211888E0,1.3004218E-1,-2.6520128E0,-1.4739124E0,1.2052408E0,-2.7190852E0,-8.353359E-1,-1.9227558E0,1.6727066E-1,-4.2532104E-1,-1.2269241E0,-1.1634369E-1,1.997855E-1,1.2520498E0,2.4277751E-1,1.9684107E0,3.6381235E0,2.1424692E0,-1.1373087E0,1.3449783E0,7.474859E0,3.239563E0,-1.2820841E-1,3.8725085E0,1.4494042E0,6.4650946E0,2.038334E0,6.252747E-2,4.2771482E0,-4.4791666E-1,3.1394655E-1,1.6161492E0,4.098007E0,7.503626E-1,-1.2973022E-1,4.0047812E-1,1.3066758E0,6.478241E0,2.8656738E0,6.4580995E-1,1.5194275E0,-7.881986E-1,-4.8165894E-1,-2.3590088E-2,2.0739289E-1,5.9188843E-2,-6.339949E-1,-6.54836E-2,-4.342102E-1,-9.297333E-2,-7.7913094E-1,-1.1352103E-1,3.4290773E-1,-7.088372E-1,-1.03139654E-1,-3.8909397E-1,-1.9926468E-1,7.977397E-1,-1.1707153E-1,-3.3660743E-1,-7.3232627E-1,-2.533517E-1,1.4245667E-1,-4.5202073E-1,-3.0821446E-2,-2.235382E-1,1.5637462E-1,-1.8799357E-1,4.0733465E-3,-1.8753842E-1,-5.909078E-1,-1.0248007E-1,7.2236635E-2,2.8552247E-2,2.8907105E-1,-2.098999E-2,8.857574E-2,5.334534E-1,1.6975784E-1,4.4081306E-1,8.1956196E-1,5.376994E-1,2.5459778E-1,-3.010071E-1,-4.018555E-2,4.5069987E-1,-1.3805847E-1,1.6927328E0,4.033651E-1,2.8513336E-1,8.487137E-1,1.6129914E-1,9.270752E-1,5.721659E-1,4.1931916E-2,7.991888E-1,1.810408E0,6.179016E-1,4.2956542E-2,8.964729E-1,2.4302064E-1,1.2667847E-2,-1.4704286E-1,2.3819987E-1,9.7370195E-1,-4.3655396E-2,1.6413879E0],"categories":[],"categories_nodes":[],"categories_segments":[],"categories_sizes":[],"default_left":[0,0,0,0,0,0,0,0,0,0,0,0,0,0,0,0,0,0,0,0,0,0,0,0,0,0,0,0,0,0,0,0,0,0,0,0,0,0,0,0,0,0,0,0,0,0,0,0,0,0,0,0,0,0,0,0,0,0,0,0,0,0,0,0,0,0,0,0,0,0,0,0,0,0,0,0,0,0,0,0,0,0,0,0,0,0,0,0,0,0,0,0,0,0,0,0,0,0,0,0,0,0,0,0,0,0,0,0,0,0,0,0,0,0,0,0,0,0,0,0,0,0,0,0,0,0,0,0,0,0,0,0,0,0,0,0,0,0,0,0,0,0,0,0,0,0,0,0,0,0,0,0,0,0,0,0,0,0,0,0,0,0,0,0,0,0,0],"id":18,"left_children":[1,3,5,7,9,11,13,15,17,19,21,23,25,27,29,-1,-1,-1,31,33,35,37,39,41,43,-1,45,47,49,51,53,55,57,59,61,63,65,67,69,71,73,75,77,79,81,83,85,87,89,91,93,95,97,-1,99,101,-1,103,105,107,109,111,113,115,117,119,121,123,125,127,129,-1,131,133,135,137,139,141,143,145,147,149,-1,151,153,155,157,-1,159,161,-1,-1,163,-1,-1,-1,-1,165,-1,-1,-1,-1,-1,-1,-1,-1,-1,-1,-1,-1,-1,-1,-1,-1,-1,-1,-1,-1,-1,-1,-1,-1,-1,-1,-1,-1,-1,-1,-1,-1,-1,-1,-1,-1,-1,-1,-1,-1,-1,-1,-1,-1,-1,-1,-1,-1,-1,-1,-1,-1,-1,-1,-1,-1,-1,-1,-1,-1,-1,-1,-1,-1,-1,-1,-1,-1,-1],"loss_changes":[5.9425303E3,3.567008E2,2.7458887E2,6.351776E1,9.453699E1,5.470117E1,1.2953564E2,2.064392E0,1.3141418E1,3.8387512E1,3.707782E1,5.6849854E1,3.8532043E2,2.9314087E1,8.112964E1,0E0,0E0,0E0,1.0960449E1,2.5865082E1,2.6224426E1,2.524292E1,4.026073E0,3.015094E1,6.2331238E1,0E0,6.2881958E1,2.6130463E1,2.3653381E1,6.305432E1,3.546347E1,1.1950439E1,2.463382E1,9.235748E0,3.8760788E1,9.748096E1,4.1360153E1,2.6272217E1,2.6159576E1,1.8993839E0,2.4464803E0,2.5769836E1,2.5104935E1,7.367676E1,2.6838314E1,3.1974716E1,8.14505E1,1.1928314E1,4.7238607E0,2.3896301E1,2.0403141E1,1.0598221E1,4.0708374E1,0E0,6.4143066E0,2.2904053E1,0E0,1.4526606E0,1.2404045E1,3.6020546E0,7.847046E0,1.0921959E1,2.2949799E1,3.70231E1,7.7095634E1,2.8992157E1,1.4255847E1,2.1727753E1,7.191817E0,2.5708786E1,3.0208534E1,0E0,1.7943022E0,1.0802488E0,4.6396428E-1,1.10377655E1,2.8543457E1,6.5475464E0,7.305932E-1,8.95192E0,4.229651E1,6.6982193E0,0E0,2.900705E1,2.2147694E1,7.880463E1,1.4671387E1,0E0,8.37265E-1,4.872157E-1,0E0,0E0,1.2120468E1,0E0,0E0,0E0,0E0,5.9672684E1,0E0,0E0,0E0,0E0,0E0,0E0,0E0,0E0,0E0,0E0,0E0,0E0,0E0,0E0,0E0,0E0,0E0,0E0,0E0,0E0,0E0,0E0,0E0,0E0,0E0,0E0,0E0,0E0,0E0,0E0,0E0,0E0,0E0,0E0,0E0,0E0,0E0,0E0,0E0,0E0,0E0,0E0,0E0,0E0,0E0,0E0,0E0,0E0,0E0,0E0,0E0,0E0,0E0,0E0,0E0,0E0,0E0,0E0,0E0,0E0,0E0,0E0,0E0,0E0,0E0,0E0,0E0,0E0,0E0],"parents":[2147483647,0,0,1,1,2,2,3,3,4,4,5,5,6,6,7,7,8,8,9,9,10,10,11,11,12,12,13,13,14,14,18,18,19,19,20,20,21,21,22,22,23,23,24,24,26,26,27,27,28,28,29,29,30,30,31,31,32,32,33,33,34,34,35,35,36,36,37,37,38,38,39,39,40,40,41,41,42,42,43,43,44,44,45,45,46,46,47,47,48,48,49,49,50,50,51,51,52,52,54,54,55,55,57,57,58,58,59,59,60,60,61,61,62,62,63,63,64,64,65,65,66,66,67,67,68,68,69,69,70,70,72,72,73,73,74,74,75,75,76,76,77,77,78,78,79,79,80,80,81,81,83,83,84,84,85,85,86,86,88,88,89,89,92,92,97,97],"right_children":[2,4,6,8,10,12,14,16,18,20,22,24,26,28,30,-1,-1,-1,32,34,36,38,40,42,44,-1,46,48,50,52,54,56,58,60,62,64,66,68,70,72,74,76,78,80,82,84,86,88,90,92,94,96,98,-1,100,102,-1,104,106,108,110,112,114,116,118,120,122,124,126,128,130,-1,132,134,136,138,140,142,144,146,148,150,-1,152,154,156,158,-1,160,162,-1,-1,164,-1,-1,-1,-1,166,-1,-1,-1,-1,-1,-1,-1,-1,-1,-1,-1,-1,-1,-1,-1,-1,-1,-1,-1,-1,-1,-1,-1,-1,-1,-1,-1,-1,-1,-1,-1,-1,-1,-1,-1,-1,-1,-1,-1,-1,-1,-1,-1,-1,-1,-1,-1,-1,-1,-1,-1,-1,-1,-1,-1,-1,-1,-1,-1,-1,-1,-1,-1,-1,-1,-1,-1,-1,-1],"split_conditions":[3.5783E2,1.19780426E2,4.8301855E2,5.435E1,1.7959E2,1.6330442E1,1.6716288E1,4.114404E8,-7.8099976E0,-4.350006E0,2.321E2,4.3052E2,3.9027E2,-7.8799896E0,3.699997E0,-1.3491597E0,-3.6125985E-1,4.9427796E-2,9.721053E0,1.7143571E2,9.2056817E-1,3.47253E7,2.5152E2,1.1421968E1,4.5095E2,3.7346618E0,-7.998657E-2,-1.0309998E1,6.0599976E0,-6.029999E0,1.12369E7,1.0727E2,-2.0299013E0,-3.4331486E-1,1.7767E2,5.379899E-1,2.2915184E0,2.6399994E0,7.29318E7,-2.0536332E0,6.7100067E0,4.0406E2,4.2143E2,-2.014356E0,1.9612297E0,-2.0900116E0,4.7822E2,4.4158E2,2.3008566E0,5.041E2,1.1679002E0,3.4733582E-1,4.9319366E2,3.21048E-1,3.8950947E-1,2.5600128E0,-9.792027E-1,4.95327E8,1.0425857E2,1.42969E2,-1.5912218E0,1.0092795E-1,5.179073E-1,1.6914E2,-1.8699951E0,1.6416467E2,1.7176E2,2.0597467E0,-5.274259E-1,-1.707046E-1,1.1679002E0,-1.1634369E-1,-1.6765553E0,8.111125E0,4.01001E0,6.36153E0,-2.6299896E0,4.0785715E2,6.861768E-1,1.738663E0,9.289978E0,4.5941E2,-1.2820841E-1,-1.0589996E1,4.42618E2,4.6454E2,4.6635934E2,6.252747E-2,7.093925E-1,-5.562016E-1,3.1394655E-1,1.6161492E0,-4.6799927E0,7.503626E-1,-1.2973022E-1,4.0047812E-1,1.3066758E0,-8.349998E0,2.8656738E0,6.4580995E-1,1.5194275E0,-7.881986E-1,-4.8165894E-1,-2.3590088E-2,2.0739289E-1,5.9188843E-2,-6.339949E-1,-6.54836E-2,-4.342102E-1,-9.297333E-2,-7.7913094E-1,-1.1352103E-1,3.4290773E-1,-7.088372E-1,-1.03139654E-1,-3.8909397E-1,-1.9926468E-1,7.977397E-1,-1.1707153E-1,-3.3660743E-1,-7.3232627E-1,-2.533517E-1,1.4245667E-1,-4.5202073E-1,-3.0821446E-2,-2.235382E-1,1.5637462E-1,-1.8799357E-1,4.0733465E-3,-1.8753842E-1,-5.909078E-1,-1.0248007E-1,7.2236635E-2,2.8552247E-2,2.8907105E-1,-2.098999E-2,8.857574E-2,5.334534E-1,1.6975784E-1,4.4081306E-1,8.1956196E-1,5.376994E-1,2.5459778E-1,-3.010071E-1,-4.018555E-2,4.5069987E-1,-1.3805847E-1,1.6927328E0,4.033651E-1,2.8513336E-1,8.487137E-1,1.6129914E-1,9.270752E-1,5.721659E-1,4.1931916E-2,7.991888E-1,1.810408E0,6.179016E-1,4.2956542E-2,8.964729E-1,2.4302064E-1,1.2667847E-2,-1.4704286E-1,2.3819987E-1,9.7370195E-1,-4.3655396E-2,1.6413879E0],"split_indices":[3,6,6,3,6,7,7,4,12,13,3,3,10,13,9,0,0,0,7,6,2,4,3,7,3,0,9,13,12,12,4,3,2,0,11,2,2,13,4,2,13,11,3,2,2,13,3,3,0,11,0,0,5,0,0,8,0,4,6,5,1,0,0,10,12,5,3,0,1,1,0,0,1,7,12,7,12,6,0,0,8,3,0,12,5,6,5,0,1,0,0,0,13,0,0,0,0,9,0,0,0,0,0,0,0,0,0,0,0,0,0,0,0,0,0,0,0,0,0,0,0,0,0,0,0,0,0,0,0,0,0,0,0,0,0,0,0,0,0,0,0,0,0,0,0,0,0,0,0,0,0,0,0,0,0,0,0,0,0,0,0,0,0,0,0,0,0],"split_type":[0,0,0,0,0,0,0,0,0,0,0,0,0,0,0,0,0,0,0,0,0,0,0,0,0,0,0,0,0,0,0,0,0,0,0,0,0,0,0,0,0,0,0,0,0,0,0,0,0,0,0,0,0,0,0,0,0,0,0,0,0,0,0,0,0,0,0,0,0,0,0,0,0,0,0,0,0,0,0,0,0,0,0,0,0,0,0,0,0,0,0,0,0,0,0,0,0,0,0,0,0,0,0,0,0,0,0,0,0,0,0,0,0,0,0,0,0,0,0,0,0,0,0,0,0,0,0,0,0,0,0,0,0,0,0,0,0,0,0,0,0,0,0,0,0,0,0,0,0,0,0,0,0,0,0,0,0,0,0,0,0,0,0,0,0,0,0],"sum_hessian":[8.28E2,6.07E2,2.21E2,8.1E1,5.26E2,1.65E2,5.6E1,7E0,7.4E1,2.81E2,2.45E2,1.15E2,5E1,3.2E1,2.4E1,6E0,1E0,1E0,7.3E1,4.1E1,2.4E2,2.19E2,2.6E1,9.4E1,2.1E1,1E0,4.9E1,1.3E1,1.9E1,1.4E1,1E1,6.2E1,1.1E1,2.1E1,2E1,1.86E2,5.4E1,4.3E1,1.76E2,1.6E1,1E1,7.2E1,2.2E1,1.3E1,8E0,2.5E1,2.4E1,1E1,3E0,1.4E1,5E0,5E0,9E0,3E0,7E0,5.5E1,7E0,3E0,8E0,5E0,1.6E1,8E0,1.2E1,1.72E2,1.4E1,3.5E1,1.9E1,3.6E1,7E0,1.11E2,6.5E1,3E0,1.3E1,5E0,5E0,1.6E1,5.6E1,2E1,2E0,3E0,1E1,6E0,2E0,1.3E1,1.2E1,1.7E1,7E0,1E0,9E0,2E0,1E0,7E0,7E0,4E0,1E0,2E0,3E0,4E0,5E0,3E0,4E0,2.2E1,3.3E1,2E0,1E0,1E0,7E0,2E0,3E0,1E0,1.5E1,6E0,2E0,8E0,4E0,8.5E1,8.7E1,5E0,9E0,1.8E1,1.7E1,1.5E1,4E0,3E1,6E0,2E0,5E0,5.1E1,6E1,5.7E1,8E0,2E0,1.1E1,1E0,4E0,2E0,3E0,9E0,7E0,1.5E1,4.1E1,1.1E1,9E0,1E0,1E0,2E0,1E0,8E0,2E0,3E0,3E0,3E0,1E1,5E0,7E0,1E1,7E0,4E0,3E0,8E0,1E0,1E0,1E0,2E0,5E0,1E0,3E0],"tree_param":{"num_deleted":"0","num_feature":"15","num_nodes":"167","size_leaf_vector":"1"}},{"base_weights":[9.093702E-2,-1.2402128E0,3.736199E0,-2.8337169E0,-9.899138E-1,4.773019E0,2.7819424E0,-1.0594243E0,-2.5331707E0,-1.3895162E0,-6.852639E-1,4.4020863E0,7.856668E0,2.4765058E0,3.8191063E0,4.4484712E-2,-2.5734143E0,-2.5057306E0,-1.2575042E0,-8.057052E-1,1.2075844E-1,8.236782E0,4.0079327E0,3.2944438E0,3.643753E0,1.6542722E0,2.7504413E0,5.1779675E0,1.9155096E0,-2.7238634E0,-1.5691051E0,-2.697892E0,1.7218171E-1,2.8707632E-1,-1.3465633E0,-2.4760466E0,-7.295962E-1,-3.888916E-1,2.80624E-1,9.17242E0,1.6873169E-1,2.7713172E0,5.006473E0,1.153128E0,1.2174927E0,5.587883E-1,2.0284617E0,2.8630583E0,2.0465088E-1,1.1541367E0,6.1704545E0,2.4652832E0,-5.555725E-1,-2.4873161E0,-8.0784225E-1,3.8996696E-1,-2.2654588E0,-1.4865779E0,-3.5834389E0,-7.58461E-1,7.3530173E-1,-1.2286829E0,-2.6713572E0,-3.137991E0,-5.331459E-1,-2.4236057E0,-6.7842686E-1,6.1465377E-1,-8.5756004E-2,2.0385742E-1,2.0722787E0,4.9570924E-1,3.3769162E0,3.572572E0,6.6799374E0,5.6274414E-2,2.7623597E-1,1.9299439E-1,-8.8638306E-2,2.3107946E0,-4.9515788E-2,1.6728584E0,3.241845E0,2.3517863E-1,-2.709076E-1,1.9530233E0,-1.2425232E-1,6.959025E0,3.4958497E-1,1.4446803E0,7.270035E-1,-2.124939E-2,-1.4542237E-1,-5.736055E-1,-2.8904247E-1,-2.0444743E-2,1.866539E-1,5.326996E-2,-5.230457E-1,-4.0812752E-1,1.3422547E-1,-4.6167183E-1,-9.813757E-1,-2.561944E-1,3.9441377E-1,-6.3695765E-1,-2.2858553E-1,-7.353925E-1,-1.1002451E-1,-4.0487673E-2,-7.056872E-1,-1.8417053E-1,-1.9391887E-2,-2.1685243E-1,-7.695953E-1,2.970421E-1,-1.4225009E-1,2.549399E-1,4.8145406E-2,-1.06450036E-1,9.389751E-2,-1.3196167E-1,2.7520448E-1,8.462855E-1,3.4735766E-1,2.625529E-2,7.6644754E-1,7.052159E-1,1.5412817E0,2.0937093E-2,-6.686097E-2,5.466024E-1,2.1624553E-1,6.73232E-1,2.5016212E-1,7.2561395E-1,3.1555787E-1,1.1947022E-1,4.6643677E-1,2.7018738E-1,1.4982338E0,3.7546185E-1,-1.1510926E-1],"categories":[],"categories_nodes":[],"categories_segments":[],"categories_sizes":[],"default_left":[0,0,0,0,0,0,0,0,0,0,0,0,0,0,0,0,0,0,0,0,0,0,0,0,0,0,0,0,0,0,0,0,0,0,0,0,0,0,0,0,0,0,0,0,0,0,0,0,0,0,0,0,0,0,0,0,0,0,0,0,0,0,0,0,0,0,0,0,0,0,0,0,0,0,0,0,0,0,0,0,0,0,0,0,0,0,0,0,0,0,0,0,0,0,0,0,0,0,0,0,0,0,0,0,0,0,0,0,0,0,0,0,0,0,0,0,0,0,0,0,0,0,0,0,0,0,0,0,0,0,0,0,0,0,0,0,0,0,0,0,0,0,0],"id":19,"left_children":[1,3,5,7,9,11,13,-1,15,17,19,21,23,25,27,-1,29,31,33,35,37,39,41,-1,43,45,47,49,51,53,55,57,-1,59,61,63,65,-1,67,69,-1,71,73,-1,75,77,79,81,83,85,87,89,91,93,-1,95,97,99,101,103,-1,105,107,109,111,113,115,117,119,-1,-1,121,123,125,127,-1,-1,-1,129,131,-1,133,135,-1,-1,137,-1,139,-1,141,-1,-1,-1,-1,-1,-1,-1,-1,-1,-1,-1,-1,-1,-1,-1,-1,-1,-1,-1,-1,-1,-1,-1,-1,-1,-1,-1,-1,-1,-1,-1,-1,-1,-1,-1,-1,-1,-1,-1,-1,-1,-1,-1,-1,-1,-1,-1,-1,-1,-1,-1,-1,-1],"loss_changes":[4.0272646E3,2.3969702E2,2.063667E2,4.7291504E1,6.3204163E1,8.551587E1,2.7922852E1,0E0,8.889435E0,3.029834E1,2.9317886E1,1.12087524E2,3.0294513E2,1.6622498E1,5.4749695E1,0E0,6.907196E0,1.720221E1,2.8586182E1,3.1501007E1,1.375194E1,4.7599915E1,9.602356E1,0E0,3.4166374E1,9.524406E0,1.919629E1,4.878885E1,1.7672077E1,9.555176E0,1.7253939E1,1.8271805E1,0E0,4.5313828E1,2.7014221E1,1.2474007E1,2.0199493E1,0E0,4.70322E0,5.7295837E1,0E0,5.620645E1,9.131543E1,0E0,3.7752867E-1,2.1893263E0,1.2781525E1,2.4331787E1,7.6501923E0,6.886707E0,2.6198364E1,6.686905E0,1.5397757E-1,1.807254E1,0E0,1.165036E0,8.666515E0,1.4519999E1,8.923065E0,1.6793482E1,0E0,2.6554382E1,2.9974083E1,8.455086E0,5.871644E-1,9.181839E0,1.8526863E1,4.629321E0,4.960232E0,0E0,0E0,1.1080085E1,3.8900696E1,2.4517365E1,4.0810913E1,0E0,0E0,0E0,2.2496957E-1,5.870453E0,0E0,8.653347E0,2.5767944E1,0E0,0E0,1.4892006E-1,0E0,1.6738678E1,0E0,7.198536E0,0E0,0E0,0E0,0E0,0E0,0E0,0E0,0E0,0E0,0E0,0E0,0E0,0E0,0E0,0E0,0E0,0E0,0E0,0E0,0E0,0E0,0E0,0E0,0E0,0E0,0E0,0E0,0E0,0E0,0E0,0E0,0E0,0E0,0E0,0E0,0E0,0E0,0E0,0E0,0E0,0E0,0E0,0E0,0E0,0E0,0E0,0E0,0E0,0E0,0E0,0E0,0E0,0E0],"parents":[2147483647,0,0,1,1,2,2,3,3,4,4,5,5,6,6,8,8,9,9,10,10,11,11,12,12,13,13,14,14,16,16,17,17,18,18,19,19,20,20,21,21,22,22,24,24,25,25,26,26,27,27,28,28,29,29,30,30,31,31,33,33,34,34,35,35,36,36,38,38,39,39,41,41,42,42,44,44,45,45,46,46,47,47,48,48,49,49,50,50,51,51,52,52,53,53,55,55,56,56,57,57,58,58,59,59,61,61,62,62,63,63,64,64,65,65,66,66,67,67,68,68,71,71,72,72,73,73,74,74,78,78,79,79,81,81,82,82,85,85,87,87,89,89],"right_children":[2,4,6,8,10,12,14,-1,16,18,20,22,24,26,28,-1,30,32,34,36,38,40,42,-1,44,46,48,50,52,54,56,58,-1,60,62,64,66,-1,68,70,-1,72,74,-1,76,78,80,82,84,86,88,90,92,94,-1,96,98,100,102,104,-1,106,108,110,112,114,116,118,120,-1,-1,122,124,126,128,-1,-1,-1,130,132,-1,134,136,-1,-1,138,-1,140,-1,142,-1,-1,-1,-1,-1,-1,-1,-1,-1,-1,-1,-1,-1,-1,-1,-1,-1,-1,-1,-1,-1,-1,-1,-1,-1,-1,-1,-1,-1,-1,-1,-1,-1,-1,-1,-1,-1,-1,-1,-1,-1,-1,-1,-1,-1,-1,-1,-1,-1,-1,-1,-1,-1],"split_conditions":[3.5783E2,1.19780426E2,5E0,5.435E1,1.7579E2,2.42858E7,4.3052E2,-1.0594243E0,-7.8099976E0,-3.519989E0,2.2491286E2,9.4555E6,9.809998E0,-2.0599976E0,4.5095E2,4.4484712E-2,9.721053E0,9.985753E-1,-2.441002E0,-7.3099976E0,-1.8657564E0,9.359985E0,4.8301855E2,3.2944438E0,2.91757E7,7.6961703E0,4.2917E2,-2.014356E0,1.9612297E0,1.0727E2,-2.0299013E0,-2.9500122E0,1.7218171E-1,1.7066E2,1.7608E2,2.2928934E2,1.7503285E2,-3.888916E-1,-2.3500276E-1,1.3543158E1,1.6873169E-1,1.13904E7,1.7048628E1,1.153128E0,-8.8034904E-1,4.18987E2,-2.5100098E0,4.0256E2,-7.9910904E-1,1.738663E0,9.289978E0,7.639984E0,-1.9946358E-1,1.4199982E0,-8.0784225E-1,4.95327E8,1.0425857E2,5.314765E-1,1.6148E2,5.3199997E0,7.3530173E-1,-2.1100006E0,1.2772145E0,-7.969238E-1,-6.100229E-1,4.0841E-1,2.8345568E0,2.3872285E2,1.2716784E1,2.0385742E-1,2.0722787E0,4.7436E2,-1.35634E-1,-9.630005E0,-6.029999E0,5.6274414E-2,2.7623597E-1,1.9299439E-1,1.5148269E0,1.1801598E1,-4.9515788E-2,-1.3399963E0,6.4400024E0,2.3517863E-1,-2.709076E-1,5.2345604E-1,-1.2425232E-1,4.0599976E0,3.4958497E-1,4.6127E2,7.270035E-1,-2.124939E-2,-1.4542237E-1,-5.736055E-1,-2.8904247E-1,-2.0444743E-2,1.866539E-1,5.326996E-2,-5.230457E-1,-4.0812752E-1,1.3422547E-1,-4.6167183E-1,-9.813757E-1,-2.561944E-1,3.9441377E-1,-6.3695765E-1,-2.2858553E-1,-7.353925E-1,-1.1002451E-1,-4.0487673E-2,-7.056872E-1,-1.8417053E-1,-1.9391887E-2,-2.1685243E-1,-7.695953E-1,2.970421E-1,-1.4225009E-1,2.549399E-1,4.8145406E-2,-1.06450036E-1,9.389751E-2,-1.3196167E-1,2.7520448E-1,8.462855E-1,3.4735766E-1,2.625529E-2,7.6644754E-1,7.052159E-1,1.5412817E0,2.0937093E-2,-6.686097E-2,5.466024E-1,2.1624553E-1,6.73232E-1,2.5016212E-1,7.2561395E-1,3.1555787E-1,1.1947022E-1,4.6643677E-1,2.7018738E-1,1.4982338E0,3.7546185E-1,-1.1510926E-1],"split_indices":[3,6,14,3,11,4,3,0,12,12,6,4,8,12,3,0,7,1,12,12,1,8,6,0,4,7,11,2,2,3,2,9,0,3,10,5,6,0,0,7,0,4,7,0,1,5,12,11,1,0,8,8,0,9,0,4,6,0,3,8,0,9,0,0,0,2,7,6,7,0,0,11,1,9,13,0,0,0,0,7,0,9,12,0,0,0,0,8,0,3,0,0,0,0,0,0,0,0,0,0,0,0,0,0,0,0,0,0,0,0,0,0,0,0,0,0,0,0,0,0,0,0,0,0,0,0,0,0,0,0,0,0,0,0,0,0,0,0,0,0,0,0,0],"split_type":[0,0,0,0,0,0,0,0,0,0,0,0,0,0,0,0,0,0,0,0,0,0,0,0,0,0,0,0,0,0,0,0,0,0,0,0,0,0,0,0,0,0,0,0,0,0,0,0,0,0,0,0,0,0,0,0,0,0,0,0,0,0,0,0,0,0,0,0,0,0,0,0,0,0,0,0,0,0,0,0,0,0,0,0,0,0,0,0,0,0,0,0,0,0,0,0,0,0,0,0,0,0,0,0,0,0,0,0,0,0,0,0,0,0,0,0,0,0,0,0,0,0,0,0,0,0,0,0,0,0,0,0,0,0,0,0,0,0,0,0,0,0,0],"sum_hessian":[8.28E2,6.07E2,2.21E2,8.1E1,5.26E2,1.04E2,1.17E2,7E0,